%YAML:1.0
my_svm: !!opencv-ml-svm
   svm_type: C_SVC
   kernel: { type:LINEAR }
   C: 100.
   term_criteria: { epsilon:2.2204460492503131e-016, iterations:1000 }
   var_all: 2025
   var_count: 2025
   class_count: 5
   class_labels: !!opencv-matrix
      rows: 1
      cols: 5
      dt: i
      data: [ 1, 2, 3, 4, 5 ]
   sv_total: 10
   support_vectors:
      - [ -2.43128710e-007, 0., 0., 0., 0., 0., -2.43128710e-007, 0., 0.,
          -2.43128710e-007, -2.43128710e-007, 2.43128710e-007,
          -2.43128710e-007, 0., -9.72514840e-007, -1.33720787e-005,
          -1.36152066e-005, -1.36152066e-005, -1.21564347e-006,
          4.13318776e-006, 8.02324666e-006, 1.41014643e-005,
          1.48308509e-005, 1.38583355e-005, 1.43445932e-005,
          8.26637552e-006, 2.67441555e-006, -4.61944546e-006,
          -5.59195996e-006, -1.72621367e-005, -4.86257420e-007,
          -2.43128710e-007, 0., 2.43128710e-007, 0., 0., 0., 0.,
          -2.43128710e-007, -2.43128710e-007, -2.43128710e-007,
          -2.43128710e-007, -2.43128710e-007, 0., 0., 0., 0., 0., 0., 0.,
          0., -2.43128710e-007, -2.43128710e-007, 0., 2.43128710e-007,
          -4.86257420e-007, -2.43128710e-007, -1.21564347e-006,
          -7.53698941e-006, -8.75263322e-006, 5.34883111e-006,
          7.05073217e-006, 6.80760331e-006, 1.45877220e-006,
          2.43128710e-007, -1.94502968e-006, -2.67441555e-006,
          -2.43128693e-006, -3.16067303e-006, -1.70190083e-006,
          -2.67441555e-006, 7.29386102e-007, 9.48201887e-006,
          1.43445932e-005, 1.26426921e-005, 0., -5.10570271e-006,
          -7.05073217e-006, -2.43128710e-007, 2.43128710e-007,
          2.43128710e-007, 0., -2.43128710e-007, 0., 0., 0.,
          -2.43128710e-007, 0., 0., 0., -2.43128710e-007, 0., 0., 0.,
          -2.43128710e-007, -2.43128710e-007, -2.43128710e-007,
          2.43128710e-007, -2.43128710e-007, -4.86257420e-007,
          -9.72514772e-006, -5.59195996e-006, -5.34883111e-006,
          8.75263322e-006, 6.32134606e-006, -2.43128710e-007,
          2.18815831e-006, 2.67441555e-006, 2.43128693e-006,
          2.43128693e-006, 2.43128693e-006, 1.70190083e-006,
          2.91754441e-006, 1.70190083e-006, 1.21564347e-006,
          1.45877220e-006, 1.21564347e-006, 3.16067303e-006,
          -4.86257420e-007, 0., 5.83508881e-006, 1.65327510e-005,
          9.72514772e-006, -7.29386102e-007, -5.34883111e-006,
          -4.86257420e-007, -4.86257420e-007, -2.43128710e-007,
          -2.43128710e-007, -2.43128710e-007, -2.43128710e-007,
          -2.43128710e-007, -2.43128710e-007, 0., 0., -2.43128710e-007,
          0., -2.43128710e-007, 0., -2.43128710e-007, -2.43128710e-007,
          2.43128710e-007, 2.43128710e-007, -7.29386102e-007,
          -1.09407911e-005, -4.37631661e-006, 4.37631661e-006,
          5.34883111e-006, 3.16067303e-006, 2.91754441e-006,
          3.40380166e-006, 2.67441555e-006, 3.89005936e-006,
          4.86257386e-006, 4.13318776e-006, 3.64693051e-006,
          2.67441555e-006, 1.70190083e-006, 3.40380166e-006,
          3.89005936e-006, 4.61944546e-006, 3.64693051e-006,
          2.43128710e-007, 2.18815831e-006, 2.18815831e-006,
          2.67441555e-006, -2.43128710e-007, 4.86257386e-006,
          1.53171077e-005, 5.10570271e-006, -2.28540976e-005, 0., 0.,
          2.43128710e-007, 0., 0., 0., -2.43128710e-007,
          -2.43128710e-007, 0., 0., -2.43128710e-007, -2.43128710e-007,
          -2.43128710e-007, -2.43128710e-007, -2.43128710e-007, 0.,
          -7.29386102e-007, -1.21564347e-006, -4.86257420e-007,
          8.50950437e-006, 2.67441555e-006, 3.64693051e-006,
          5.10570271e-006, 3.16067303e-006, 2.91754441e-006,
          1.70190083e-006, -3.89005936e-006, -8.99576207e-006,
          -1.26426921e-005, -1.50739788e-005, -1.58033654e-005,
          -1.55602374e-005, -1.48308509e-005, -1.41014643e-005,
          -1.16701776e-005, -5.10570271e-006, -1.21564347e-006,
          3.64693051e-006, 4.37631661e-006, 7.29386102e-007,
          4.61944546e-006, -4.86257420e-007, 4.86257420e-007,
          9.48201887e-006, 1.65327510e-005, -2.67441555e-006, 0.,
          2.43128710e-007, 0., -2.43128710e-007, -4.86257420e-007,
          -2.43128710e-007, -2.43128710e-007, -2.43128710e-007, 0.,
          -2.43128710e-007, -2.43128710e-007, 0., -2.43128710e-007,
          -4.86257420e-007, -9.96827657e-006, -4.13318776e-006,
          1.94502968e-006, 5.83508881e-006, 2.91754441e-006,
          4.13318776e-006, 3.89005936e-006, 5.10570271e-006, 0.,
          -8.50950437e-006, -1.53171077e-005, -1.79915241e-005,
          -1.94502954e-005, -2.06659388e-005, -2.18815821e-005,
          -2.11521965e-005, -2.09090686e-005, -2.09090686e-005,
          -2.01796811e-005, -2.04228108e-005, -1.92071675e-005,
          -1.72621367e-005, -1.48308509e-005, -6.32134606e-006,
          2.43128693e-006, 3.89005936e-006, 2.18815831e-006,
          3.16067303e-006, 1.21564347e-006, 2.18815831e-006,
          1.06976622e-005, 1.14270488e-005, -4.86257420e-007,
          -2.43128710e-007, 0., -2.43128710e-007, -2.43128710e-007, 0.,
          -2.43128710e-007, 0., 0., 0., 2.43128710e-007,
          -4.86257420e-007, -8.99576207e-006, -5.83508881e-006,
          4.86257420e-007, 3.64693051e-006, 5.34883111e-006,
          3.64693051e-006, 5.34883111e-006, 1.45877220e-006,
          -9.72514772e-006, -1.77483944e-005, -1.87209098e-005,
          -2.06659388e-005, -2.11521965e-005, -2.13953244e-005,
          -2.13953244e-005, -2.11521965e-005, -2.09090686e-005,
          -2.16384542e-005, -2.11521965e-005, -2.13953244e-005,
          -2.11521965e-005, -2.13953244e-005, -2.09090686e-005,
          -2.06659388e-005, -1.94502954e-005, -1.67758808e-005,
          -4.37631661e-006, 2.91754441e-006, 4.13318776e-006,
          2.43128693e-006, 2.91754441e-006, 2.43128693e-006,
          1.41014643e-005, 3.40380166e-006, -7.29386102e-007,
          -2.43128710e-007, 4.86257420e-007, 2.43128710e-007,
          -2.43128710e-007, -2.43128710e-007, 0., 0., 0., 0.,
          -8.02324666e-006, -3.64693051e-006, 7.29386102e-007,
          4.37631661e-006, 3.40380166e-006, 3.89005936e-006,
          5.83508881e-006, -3.89005936e-006, -1.60464933e-005,
          -1.82346521e-005, -2.01796811e-005, -2.01796811e-005,
          -2.16384542e-005, -2.13953244e-005, -2.16384542e-005,
          -2.06659388e-005, -2.09090686e-005, -2.11521965e-005,
          -2.11521965e-005, -2.09090686e-005, -2.06659388e-005,
          -2.09090686e-005, -2.11521965e-005, -2.11521965e-005,
          -2.13953244e-005, -2.21247119e-005, -1.60464933e-005,
          -1.28858210e-005, -1.06976622e-005, 1.70190083e-006,
          4.37631661e-006, 1.94502968e-006, 3.40380166e-006,
          2.43128710e-007, 1.16701776e-005, 1.21564347e-006,
          -4.86257420e-007, 0., 0., 0., -2.43128710e-007,
          -2.43128710e-007, 0., 0., -2.43128710e-007, -1.09407911e-005,
          -4.86257420e-007, 2.43128693e-006, 4.61944546e-006,
          9.72514840e-007, 6.07821721e-006, -6.32134606e-006,
          -1.79915241e-005, -1.99365531e-005, -2.09090686e-005,
          -2.06659388e-005, -2.04228108e-005, -2.11521965e-005,
          -2.11521965e-005, -2.16384542e-005, -2.09090686e-005,
          -2.13953244e-005, -2.16384542e-005, -2.18815821e-005,
          -2.21247119e-005, -2.18815821e-005, -2.16384542e-005,
          -2.16384542e-005, -2.16384542e-005, -2.11521965e-005,
          -1.87209098e-005, -1.23995633e-005, -1.11839199e-005,
          -1.21564344e-005, -1.21564344e-005, 0., 2.43128693e-006,
          4.37631661e-006, 1.21564347e-006, 1.21564347e-006,
          1.11839199e-005, -3.40380166e-006, 2.43128710e-007, 0., 0., 0.,
          0., 2.43128710e-007, -2.43128710e-007, -1.36152066e-005,
          -4.13318776e-006, 5.83508881e-006, 3.64693051e-006,
          2.91754441e-006, 5.59195996e-006, -8.75263322e-006,
          -1.84777819e-005, -1.92071675e-005, -2.13953244e-005,
          -2.04228108e-005, -2.11521965e-005, -2.11521965e-005,
          -2.18815821e-005, -2.16384542e-005, -2.21247119e-005,
          -2.13953244e-005, -2.13953244e-005, -2.11521965e-005,
          -2.09090686e-005, -2.18815821e-005, -2.18815821e-005,
          -2.18815821e-005, -2.13953244e-005, -2.28540976e-005,
          -2.06659388e-005, -1.55602374e-005, -1.21564344e-005,
          -1.14270488e-005, -1.23995633e-005, -1.43445932e-005,
          -1.82346521e-005, -5.34883111e-006, 5.83508881e-006,
          2.43128693e-006, 3.16067303e-006, 4.13318776e-006,
          6.32134606e-006, -2.82029287e-005, 2.43128710e-007, 0., 0., 0.,
          -2.43128710e-007, -7.29386102e-006, -2.18815831e-006,
          6.32134606e-006, 2.91754441e-006, 1.94502968e-006,
          4.13318776e-006, -8.02324666e-006, -1.94502954e-005,
          -1.92071675e-005, -2.11521965e-005, -2.13953244e-005,
          -2.11521965e-005, -2.13953244e-005, -2.13953244e-005,
          -2.13953244e-005, -2.16384542e-005, -2.13953244e-005,
          -2.13953244e-005, -2.13953244e-005, -2.13953244e-005,
          -2.13953244e-005, -2.11521965e-005, -2.18815821e-005,
          -2.23678398e-005, -2.18815821e-005, -2.16384542e-005,
          -1.65327510e-005, -1.21564344e-005, -1.23995633e-005,
          -1.09407911e-005, -1.38583355e-005, -1.87209098e-005,
          -2.23678398e-005, -2.13953244e-005, -2.91754441e-006,
          6.80760331e-006, -2.43128710e-007, 2.18815831e-006,
          7.53698941e-006, 2.18815831e-006, -3.11204749e-005,
          -2.43128710e-007, 0., -2.43128710e-007, -2.43128710e-007,
          -4.61944546e-006, 1.21564347e-006, 3.89005936e-006,
          3.40380166e-006, 4.13318776e-006, -1.70190083e-006,
          -1.55602374e-005, -1.89640377e-005, -2.04228108e-005,
          -2.18815821e-005, -2.26109696e-005, -2.06659388e-005,
          -2.11521965e-005, -2.06659388e-005, -2.21247119e-005,
          -2.01796811e-005, -2.18815821e-005, -2.18815821e-005,
          -2.16384542e-005, -2.16384542e-005, -2.18815821e-005,
          -2.06659388e-005, -2.23678398e-005, -2.06659388e-005,
          -2.26109696e-005, -1.79915241e-005, -1.21564344e-005,
          -1.31289498e-005, -1.23995633e-005, -1.26426921e-005,
          -1.72621367e-005, -2.09090686e-005, -1.99365531e-005,
          -2.30972255e-005, -1.77483944e-005, -2.18815831e-006,
          4.61944546e-006, 4.37631661e-006, 2.67441555e-006,
          1.16701776e-005, -2.13953244e-005, 2.43128710e-007,
          -2.43128710e-007, -2.43128710e-007, -8.75263322e-006,
          1.94502968e-006, 2.43128693e-006, 3.89005936e-006,
          2.43128693e-006, 3.89005936e-006, -1.19133065e-005,
          -1.31289498e-005, -1.53171077e-005, -1.92071675e-005,
          -2.13953244e-005, -2.30972255e-005, -2.38266130e-005,
          -1.84777819e-005, -1.53171077e-005, -1.50739788e-005,
          -2.06659388e-005, -2.26109696e-005, -2.21247119e-005,
          -2.18815821e-005, -2.09090686e-005, -2.04228108e-005,
          -2.16384542e-005, -2.21247119e-005, -2.35834832e-005,
          -2.04228108e-005, -1.33720787e-005, -1.16701776e-005,
          -1.26426921e-005, -1.19133065e-005, -1.50739788e-005,
          -1.94502954e-005, -1.99365531e-005, -1.96934252e-005,
          -2.09090686e-005, -2.06659388e-005, -1.33720787e-005,
          5.10570271e-006, 9.72514840e-007, 3.64693051e-006,
          3.64693051e-006, 2.18815831e-006, -3.01479577e-005,
          -2.43128710e-007, -9.72514840e-007, 7.29386102e-007,
          4.13318776e-006, 4.37631661e-006, 3.89005936e-006,
          3.89005936e-006, -6.80760331e-006, -1.28858210e-005,
          -1.21564344e-005, -1.19133065e-005, -1.33720787e-005,
          -1.70190087e-005, -2.01796811e-005, -1.21564347e-006,
          2.91754441e-006, 2.91754441e-006, 2.18815831e-006,
          3.89005936e-006, -3.89005936e-006, -2.18815821e-005,
          -2.21247119e-005, -2.13953244e-005, -2.16384542e-005,
          -2.09090686e-005, -8.50950437e-006, -7.29386102e-007,
          6.32134606e-006, -2.67441555e-006, -1.36152066e-005,
          -1.14270488e-005, -1.53171077e-005, -1.94502954e-005,
          -2.04228108e-005, -2.01796811e-005, -2.06659388e-005,
          -2.11521965e-005, -2.06659388e-005, -2.26109696e-005,
          -4.37631661e-006, 1.94502968e-006, 4.61944546e-006,
          4.13318776e-006, 4.37631661e-006, -1.94502954e-005,
          -2.67441555e-006, -6.32134606e-006, 2.18815831e-006,
          4.13318776e-006, 2.67441555e-006, 4.13318776e-006,
          2.67441555e-006, -1.36152066e-005, -1.26426921e-005,
          -1.23995633e-005, -1.33720787e-005, -1.23995633e-005,
          -1.33720787e-005, 3.16067303e-006, 3.64693051e-006,
          3.64693051e-006, -4.86257420e-007, 0., 1.94502968e-006,
          3.16067303e-006, -2.43128693e-006, -2.35834832e-005,
          -2.21247119e-005, -2.21247119e-005, -1.94502968e-006,
          2.43128710e-007, 6.56447492e-006, 9.48201887e-006,
          1.36152066e-005, 1.94502968e-006, -1.53171077e-005,
          -1.89640377e-005, -2.21247119e-005, -2.04228108e-005,
          -2.11521965e-005, -2.04228108e-005, -2.11521965e-005,
          -2.01796811e-005, -1.99365531e-005, -1.75052664e-005,
          3.40380166e-006, 1.70190083e-006, 2.91754441e-006,
          4.37631661e-006, 4.86257386e-006, -2.52853843e-005,
          -1.38583355e-005, 1.70190083e-006, 3.16067303e-006,
          3.40380166e-006, 4.37631661e-006, -6.32134606e-006,
          -2.16384542e-005, -1.82346521e-005, -1.41014643e-005,
          -1.14270488e-005, -1.43445932e-005, -1.16701776e-005,
          1.02114054e-005, 1.19133065e-005, 1.94502968e-006,
          -2.38266130e-005, -2.57716420e-005, -1.45877220e-006,
          1.21564347e-006, 5.59195996e-006, -1.82346521e-005,
          -2.11521965e-005, -1.04545343e-005, 7.29386102e-007,
          4.86257386e-006, 1.70190083e-006, 7.78011872e-006,
          1.02114054e-005, 1.41014643e-005, -1.82346521e-005,
          -2.01796811e-005, -2.13953244e-005, -2.11521965e-005,
          -2.11521965e-005, -2.09090686e-005, -2.13953244e-005,
          -2.23678398e-005, -1.87209098e-005, -2.26109696e-005,
          -5.83508881e-006, 3.16067303e-006, 3.16067303e-006,
          2.43128693e-006, 5.10570271e-006, -3.86574611e-005,
          -1.28858210e-005, 4.61944546e-006, 2.18815831e-006,
          1.94502968e-006, 5.83508881e-006, -1.70190087e-005,
          -2.21247119e-005, -2.28540976e-005, -2.09090686e-005,
          -1.60464933e-005, -1.26426921e-005, -4.13318776e-006,
          1.23995633e-005, 1.38583355e-005, -9.72514772e-006,
          -1.43445932e-005, -1.79915241e-005, -1.58033654e-005,
          2.18815831e-006, 3.64693051e-006, -1.04545343e-005,
          -2.18815821e-005, 7.29386102e-007, 2.91754441e-006,
          4.86257420e-007, -1.33720787e-005, -1.38583355e-005,
          1.14270488e-005, 9.72514772e-006, -7.78011872e-006,
          -2.16384542e-005, -2.06659388e-005, -2.18815821e-005,
          -2.09090686e-005, -2.09090686e-005, -2.11521965e-005,
          -2.06659388e-005, -2.09090686e-005, -2.11521965e-005,
          -1.84777819e-005, 5.10570271e-006, 3.89005936e-006,
          3.40380166e-006, 3.64693051e-006, -2.65010276e-005,
          4.61944546e-006, 4.13318776e-006, 3.40380166e-006,
          2.18815831e-006, 1.94502968e-006, -2.06659388e-005,
          -2.21247119e-005, -2.35834832e-005, -2.28540976e-005,
          -2.16384542e-005, -1.92071675e-005, -1.33720787e-005,
          -4.86257386e-006, -7.29386102e-007, -1.45877220e-005,
          -1.16701776e-005, -1.21564344e-005, -1.53171077e-005,
          5.59195996e-006, -2.43128710e-007, -6.32134606e-006,
          -1.87209098e-005, 1.70190083e-006, 8.50950437e-006,
          -8.26637552e-006, -1.23995633e-005, -1.50739788e-005,
          4.37631661e-006, 3.40380166e-006, -2.18815831e-006,
          -2.16384542e-005, -2.04228108e-005, -2.16384542e-005,
          -2.09090686e-005, -2.09090686e-005, -2.06659388e-005,
          -2.01796811e-005, -2.18815821e-005, -1.94502954e-005,
          -2.18815821e-005, 1.45877220e-006, 2.43128693e-006,
          2.67441555e-006, 4.13318776e-006, -2.26109696e-005,
          3.40380166e-006, 5.10570271e-006, 4.61944546e-006,
          3.16067303e-006, -2.18815831e-006, -2.01796811e-005,
          -2.28540976e-005, -2.26109696e-005, -2.28540976e-005,
          -2.30972255e-005, -2.43128688e-005, -2.18815821e-005,
          -1.79915241e-005, -1.48308509e-005, -1.33720787e-005,
          -1.43445932e-005, -1.36152066e-005, -3.89005936e-006,
          9.23889093e-006, 6.56447492e-006, -1.09407911e-005,
          -1.77483944e-005, 4.86257386e-006, 1.33720787e-005,
          -1.65327510e-005, -1.26426921e-005, -1.55602374e-005,
          -2.43128693e-006, 7.29386102e-007, 3.64693051e-006,
          -2.09090686e-005, -2.06659388e-005, -2.16384542e-005,
          -2.06659388e-005, -2.09090686e-005, -2.06659388e-005,
          -2.01796811e-005, -2.09090686e-005, -2.01796811e-005,
          -2.18815821e-005, -5.83508881e-006, 3.89005936e-006,
          4.37631661e-006, 4.37631661e-006, 3.89005936e-006,
          2.91754441e-006, 4.37631661e-006, 3.16067303e-006,
          3.16067303e-006, -8.50950437e-006, -2.11521965e-005,
          -2.38266130e-005, -2.21247119e-005, -2.28540976e-005,
          -2.40697409e-005, -2.30972255e-005, -2.35834832e-005,
          -2.28540976e-005, -2.04228108e-005, -1.75052664e-005,
          -1.38583355e-005, -1.48308509e-005, 7.53698941e-006,
          1.14270488e-005, 1.53171077e-005, -1.45877220e-005,
          -9.72514772e-006, 9.72514772e-006, 1.55602374e-005,
          -1.33720787e-005, -1.28858210e-005, -1.79915241e-005,
          -6.07821721e-006, 1.45877220e-006, 4.37631661e-006,
          -2.23678398e-005, -2.04228108e-005, -2.11521965e-005,
          -2.09090686e-005, -2.16384542e-005, -2.16384542e-005,
          -2.09090686e-005, -2.11521965e-005, -2.04228108e-005,
          -2.18815821e-005, -1.43445932e-005, 3.89005936e-006,
          3.64693051e-006, 3.16067303e-006, 0., 3.16067303e-006,
          3.16067303e-006, 2.67441555e-006, 3.64693051e-006,
          -1.23995633e-005, -2.21247119e-005, -2.38266130e-005,
          -2.21247119e-005, -2.26109696e-005, -2.30972255e-005,
          -2.26109696e-005, -2.21247119e-005, -2.23678398e-005,
          -2.40697409e-005, -2.18815821e-005, -1.87209098e-005,
          2.43128693e-006, 1.14270488e-005, 1.19133065e-005,
          3.40380166e-006, -1.41014643e-005, 7.29386102e-007,
          1.19133065e-005, 1.43445932e-005, -1.41014643e-005,
          -1.50739788e-005, -2.23678398e-005, -7.78011872e-006,
          1.45877220e-006, 3.89005936e-006, -2.23678398e-005,
          -2.06659388e-005, -2.11521965e-005, -2.09090686e-005,
          -2.16384542e-005, -2.09090686e-005, -2.06659388e-005,
          -2.11521965e-005, -2.01796811e-005, -2.04228108e-005,
          -1.79915241e-005, 5.10570271e-006, 4.37631661e-006,
          4.86257386e-006, -1.94502968e-006, 1.21564347e-006,
          3.89005936e-006, 2.43128693e-006, 3.40380166e-006,
          -1.65327510e-005, -2.23678398e-005, -2.30972255e-005,
          -2.23678398e-005, -2.28540976e-005, -2.28540976e-005,
          -2.28540976e-005, -2.33403553e-005, -2.23678398e-005,
          -2.28540976e-005, -2.21247119e-005, -2.91754441e-006,
          3.16067303e-006, 6.07821721e-006, 7.78011872e-006,
          -1.11839199e-005, -1.38583355e-005, 1.45877220e-006,
          1.06976622e-005, 1.28858210e-005, -1.60464933e-005,
          -1.77483944e-005, -2.38266130e-005, -8.02324666e-006,
          7.29386102e-007, 3.40380166e-006, -2.28540976e-005,
          -2.04228108e-005, -2.11521965e-005, -2.09090686e-005,
          -2.11521965e-005, -2.09090686e-005, -2.09090686e-005,
          -2.13953244e-005, -1.99365531e-005, -1.92071675e-005,
          -2.09090686e-005, 6.80760331e-006, 4.13318776e-006,
          3.16067303e-006, -7.29386102e-007, 2.43128710e-007,
          3.64693051e-006, 2.91754441e-006, 2.91754441e-006,
          -1.58033654e-005, -2.26109696e-005, -2.28540976e-005,
          -2.26109696e-005, -2.30972255e-005, -2.30972255e-005,
          -2.38266130e-005, -2.21247119e-005, -2.26109696e-005,
          -2.23678398e-005, -9.72514840e-007, 9.72514840e-007,
          1.21564347e-006, -1.94502968e-006, -1.96934252e-005,
          -1.60464933e-005, -1.41014643e-005, 3.40380166e-006,
          1.04545343e-005, 1.26426921e-005, -1.60464933e-005,
          -1.60464933e-005, -2.21247119e-005, -6.80760331e-006,
          -2.43128710e-007, 3.16067303e-006, -2.30972255e-005,
          -2.23678398e-005, -1.33720787e-005, -5.34883111e-006,
          -2.23678398e-005, -2.04228108e-005, -2.09090686e-005,
          -2.16384542e-005, -1.99365531e-005, -1.87209098e-005,
          -2.18815821e-005, 5.34883111e-006, 3.64693051e-006,
          3.16067303e-006, -1.21564347e-006, 0., 3.16067303e-006,
          2.67441555e-006, 2.67441555e-006, -1.43445932e-005,
          -2.26109696e-005, -2.26109696e-005, -2.28540976e-005,
          -2.30972255e-005, -2.30972255e-005, -2.50422563e-005,
          -2.33403553e-005, -2.23678398e-005, -2.67441555e-006,
          4.86257420e-007, 2.67441555e-006, -6.56447492e-006,
          -2.35834832e-005, -2.21247119e-005, -1.55602374e-005,
          -1.31289498e-005, 2.43128693e-006, 1.04545343e-005,
          1.16701776e-005, -1.62896231e-005, -1.28858210e-005,
          -1.67758808e-005, 2.43128710e-007, 1.45877220e-006,
          1.45877220e-006, -2.38266130e-005, -2.09090686e-005,
          2.67441555e-006, -4.13318776e-006, -2.35834832e-005,
          -2.21247119e-005, -2.13953244e-005, -2.13953244e-005,
          -2.01796811e-005, -2.01796811e-005, -2.13953244e-005,
          4.61944546e-006, 3.64693051e-006, 4.13318776e-006,
          -2.91754441e-006, 7.29386102e-007, 2.91754441e-006,
          1.70190083e-006, 3.40380166e-006, -1.11839199e-005,
          -2.18815821e-005, -2.38266130e-005, -2.35834832e-005,
          -2.30972255e-005, -2.28540976e-005, -2.18815821e-005,
          -2.35834832e-005, -4.37631661e-006, -2.43128710e-007,
          3.64693051e-006, -9.96827657e-006, -2.35834832e-005,
          -2.38266130e-005, -1.79915241e-005, -1.28858210e-005,
          -1.41014643e-005, -2.43128710e-007, 9.48201887e-006,
          1.16701776e-005, -1.60464933e-005, -1.28858210e-005,
          -1.62896231e-005, 8.02324666e-006, 6.32134606e-006,
          9.72514840e-007, -2.33403553e-005, 9.72514840e-007,
          1.70190083e-006, 3.16067303e-006, 7.78011872e-006,
          -1.94502954e-005, -1.99365531e-005, -2.13953244e-005,
          -2.11521965e-005, -1.99365531e-005, -2.01796811e-005,
          4.13318776e-006, 3.64693051e-006, 4.37631661e-006,
          -3.89005936e-006, 1.70190083e-006, 3.64693051e-006,
          1.70190083e-006, 3.40380166e-006, -6.07821721e-006,
          -2.23678398e-005, -2.38266130e-005, -2.35834832e-005,
          -2.30972255e-005, -2.26109696e-005, -2.33403553e-005,
          -6.56447492e-006, 1.21564347e-006, 2.18815831e-006,
          -8.02324666e-006, -2.33403553e-005, -2.43128688e-005,
          -2.06659388e-005, -1.65327510e-005, -1.33720787e-005,
          -1.38583355e-005, -1.21564347e-006, 6.07821721e-006,
          7.05073217e-006, -1.75052664e-005, -1.21564344e-005,
          -1.62896231e-005, 8.99576207e-006, 1.11839199e-005,
          -4.86257420e-007, -1.77483944e-005, -2.38266130e-005,
          7.29386102e-007, -8.75263322e-006, -2.18815821e-005,
          -2.06659388e-005, -2.11521965e-005, -2.16384542e-005,
          -2.04228108e-005, -1.99365531e-005, -1.62896231e-005,
          4.61944546e-006, 3.64693051e-006, 4.86257386e-006,
          -3.40380166e-006, 2.43128710e-007, 2.18815831e-006,
          2.18815831e-006, 2.43128693e-006, 2.43128710e-007,
          -2.16384542e-005, -2.40697409e-005, -2.26109696e-005,
          -2.30972255e-005, -2.30972255e-005, -2.57716420e-005,
          4.86257420e-007, -1.21564347e-006, 2.91754441e-006,
          -8.02324666e-006, -1.45877220e-005, -1.60464933e-005,
          -1.16701776e-005, -1.14270488e-005, -9.48201887e-006,
          -1.43445932e-005, -1.36152066e-005, 2.91754441e-006,
          4.61944546e-006, -2.04228108e-005, -1.58033654e-005,
          -1.16701776e-005, 1.36152066e-005, 1.43445932e-005,
          -1.02114054e-005, -1.26426921e-005, -1.41014643e-005,
          5.59195996e-006, -1.02114054e-005, -2.18815821e-005,
          -1.94502954e-005, -2.06659388e-005, -2.11521965e-005,
          -1.94502954e-005, -2.18815821e-005, -9.48201887e-006,
          3.89005936e-006, 3.16067303e-006, 4.61944546e-006,
          -1.21564347e-006, -1.96934252e-005, 2.91754441e-006,
          1.70190083e-006, 3.40380166e-006, 4.86257386e-006,
          -1.99365531e-005, -2.33403553e-005, -2.21247119e-005,
          -2.28540976e-005, -2.35834832e-005, -2.47991265e-005,
          2.43128710e-007, 9.72514840e-007, 1.94502968e-006,
          9.72514840e-007, 1.21564347e-006, 6.56447492e-006,
          1.02114054e-005, 1.02114054e-005, 1.62896231e-005,
          -1.67758808e-005, -2.40697409e-005, 1.94502968e-006,
          2.67441555e-006, -2.43128693e-006, -1.99365531e-005,
          2.43128710e-007, 8.99576207e-006, 1.04545343e-005,
          -1.65327510e-005, -1.19133065e-005, -1.26426921e-005,
          1.23995633e-005, -7.53698941e-006, -1.89640377e-005,
          -2.01796811e-005, -2.18815821e-005, -2.13953244e-005,
          -1.92071675e-005, -2.30972255e-005, -4.13318776e-006,
          3.64693051e-006, 3.64693051e-006, 2.67441555e-006,
          2.67441555e-006, -1.60464933e-005, -3.64693051e-006,
          3.64693051e-006, 2.18815831e-006, 2.43128693e-006,
          -1.31289498e-005, -2.35834832e-005, -2.21247119e-005,
          -2.35834832e-005, -2.35834832e-005, -2.50422563e-005,
          2.91754441e-006, 3.89005936e-006, 3.89005936e-006,
          1.45877220e-006, 6.56447492e-006, 1.06976622e-005,
          9.23889093e-006, 8.99576207e-006, 1.43445932e-005,
          -1.96934252e-005, -2.45559986e-005, -1.14270488e-005,
          5.34883111e-006, 2.43128710e-007, 1.21564347e-006,
          4.86257420e-007, 4.86257386e-006, -1.04545343e-005,
          -1.26426921e-005, -1.33720787e-005, -1.33720787e-005,
          1.33720787e-005, -3.40380166e-006, -1.60464933e-005,
          -1.60464933e-005, -2.13953244e-005, -2.26109696e-005,
          -2.11521965e-005, -2.01796811e-005, 9.72514840e-007,
          2.18815831e-006, 3.40380166e-006, 2.43128710e-007,
          4.86257420e-007, -8.26637552e-006, 1.45877220e-006,
          2.91754441e-006, 2.18815831e-006, 2.67441555e-006,
          -9.72514840e-007, -2.28540976e-005, -2.26109696e-005,
          -2.30972255e-005, -2.38266130e-005, -2.45559986e-005,
          -2.04228108e-005, -2.04228108e-005, -2.01796811e-005,
          -1.67758808e-005, -8.50950437e-006, -5.10570271e-006,
          -3.40380166e-006, -2.91754441e-006, -2.91754441e-006,
          -2.30972255e-005, -2.26109696e-005, -2.47991265e-005,
          -1.02114054e-005, 2.43128693e-006, 5.10570271e-006,
          3.89005936e-006, -1.33720787e-005, -2.45559986e-005,
          -2.09090686e-005, -1.48308509e-005, -1.09407911e-005,
          1.31289498e-005, 1.48308509e-005, 3.64693051e-006,
          -1.21564344e-005, -1.50739788e-005, -1.96934252e-005,
          -2.35834832e-005, -1.14270488e-005, 2.43128693e-006,
          2.43128693e-006, 3.64693051e-006, -2.18815831e-006,
          -3.57399185e-005, -9.72514840e-007, -1.23995633e-005,
          9.72514840e-007, 2.18815831e-006, 2.43128693e-006,
          4.13318776e-006, -1.43445932e-005, -2.33403553e-005,
          -2.43128688e-005, -2.40697409e-005, -2.38266130e-005,
          -2.33403553e-005, -2.43128688e-005, -2.28540976e-005,
          -1.72621367e-005, -1.26426921e-005, -1.48308509e-005,
          -1.36152066e-005, -1.67758808e-005, -2.21247119e-005,
          -2.30972255e-005, -2.23678398e-005, -2.28540976e-005,
          -2.35834832e-005, -2.43128688e-005, -2.21247119e-005,
          -2.26109696e-005, -2.23678398e-005, -2.11521965e-005,
          -2.21247119e-005, -2.09090686e-005, -1.92071675e-005,
          -7.78011872e-006, -4.37631661e-006, -3.40380166e-006,
          -1.14270488e-005, -1.31289498e-005, -1.36152066e-005,
          -1.84777819e-005, -2.18815831e-006, 1.70190083e-006,
          2.18815831e-006, 4.13318776e-006, 1.21564347e-006,
          -4.25475228e-005, -2.43128710e-007, -1.38583355e-005,
          -3.16067303e-006, 4.61944546e-006, 2.91754441e-006,
          2.43128710e-007, 1.21564347e-006, -2.18815821e-005,
          -2.35834832e-005, -2.35834832e-005, -2.33403553e-005,
          -2.33403553e-005, -2.45559986e-005, -1.89640377e-005,
          -1.55602374e-005, -1.43445932e-005, -1.45877220e-005,
          -1.45877220e-005, -2.11521965e-005, -2.28540976e-005,
          -2.16384542e-005, -2.26109696e-005, -2.23678398e-005,
          -2.21247119e-005, -2.11521965e-005, -2.06659388e-005,
          -2.23678398e-005, -2.26109696e-005, -2.11521965e-005,
          -2.06659388e-005, -2.21247119e-005, -2.09090686e-005,
          -1.82346521e-005, -1.36152066e-005, -1.31289498e-005,
          -1.16701776e-005, -1.23995633e-005, -1.33720787e-005,
          -5.34883111e-006, 1.94502968e-006, 3.16067303e-006,
          3.40380166e-006, 1.21564347e-006, -6.07821721e-006,
          -4.93551270e-005, 0., -7.78011872e-006, 2.67441555e-006,
          -4.86257420e-007, 7.29386102e-007, 3.40380166e-006,
          3.64693051e-006, -1.11839199e-005, -2.26109696e-005,
          -2.35834832e-005, -2.30972255e-005, -2.38266130e-005,
          -2.09090686e-005, -1.55602374e-005, -1.48308509e-005,
          -1.58033654e-005, -1.41014643e-005, -1.94502954e-005,
          -2.33403553e-005, -2.28540976e-005, -2.23678398e-005,
          -2.23678398e-005, -2.30972255e-005, -2.26109696e-005,
          -2.18815821e-005, -2.16384542e-005, -2.09090686e-005,
          -2.16384542e-005, -2.23678398e-005, -2.18815821e-005,
          -2.13953244e-005, -2.21247119e-005, -2.13953244e-005,
          -2.09090686e-005, -1.62896231e-005, -1.48308509e-005,
          -1.26426921e-005, -1.21564344e-005, 2.91754441e-006,
          7.29386102e-007, 4.86257386e-006, 3.64693051e-006,
          -4.86257420e-007, -4.03593622e-005, -4.95982531e-005,
          -2.43128710e-007, 0., -1.67758808e-005, -4.86257386e-006,
          5.34883111e-006, -9.72514840e-007, 9.72514840e-007,
          1.94502968e-006, -1.72621367e-005, -2.43128688e-005,
          -2.33403553e-005, -2.26109696e-005, -1.58033654e-005,
          -1.41014643e-005, -1.50739788e-005, -1.45877220e-005,
          -1.79915241e-005, -2.28540976e-005, -2.38266130e-005,
          -2.33403553e-005, -2.28540976e-005, -2.26109696e-005,
          -2.23678398e-005, -2.21247119e-005, -2.23678398e-005,
          -2.23678398e-005, -2.23678398e-005, -2.21247119e-005,
          -2.23678398e-005, -2.21247119e-005, -2.13953244e-005,
          -2.16384542e-005, -2.11521965e-005, -2.16384542e-005,
          -2.21247119e-005, -1.96934252e-005, -1.50739788e-005,
          -7.29386102e-007, 3.16067303e-006, 3.16067303e-006,
          3.40380166e-006, -7.29386102e-007, -3.86574611e-005,
          -4.44925499e-005, -4.98413829e-005, -4.86257420e-007,
          -4.86257420e-007, -7.78011872e-006, -1.60464933e-005,
          -2.18815831e-006, 9.72514840e-007, 7.29386102e-007,
          1.70190083e-006, 1.45877220e-006, -2.11521965e-005,
          -2.40697409e-005, -1.75052664e-005, -1.50739788e-005,
          -1.50739788e-005, -1.55602374e-005, -1.58033654e-005,
          -2.21247119e-005, -2.45559986e-005, -2.35834832e-005,
          -2.30972255e-005, -2.30972255e-005, -2.26109696e-005,
          -2.23678398e-005, -2.26109696e-005, -2.26109696e-005,
          -2.23678398e-005, -2.21247119e-005, -2.21247119e-005,
          -2.21247119e-005, -2.21247119e-005, -2.18815821e-005,
          -2.09090686e-005, -2.13953244e-005, -2.16384542e-005,
          -2.09090686e-005, -2.65010276e-005, -1.02114054e-005,
          3.89005936e-006, 2.43128693e-006, 2.67441555e-006,
          2.67441555e-006, -2.94185720e-005, -3.89005909e-005,
          -4.78963520e-005, -2.69872853e-005, -2.43128710e-007,
          -2.43128710e-007, 0., -1.04545343e-005, -3.08773451e-005,
          4.86257420e-007, 2.67441555e-006, -2.43128710e-007, 0.,
          2.67441555e-006, -1.87209098e-005, -1.48308509e-005,
          -1.50739788e-005, -1.53171077e-005, -1.65327510e-005,
          -1.96934252e-005, -2.40697409e-005, -2.43128688e-005,
          -2.43128688e-005, -2.30972255e-005, -2.28540976e-005,
          -2.23678398e-005, -2.26109696e-005, -2.23678398e-005,
          -2.23678398e-005, -2.26109696e-005, -2.23678398e-005,
          -2.26109696e-005, -2.23678398e-005, -2.18815821e-005,
          -2.13953244e-005, -2.13953244e-005, -2.11521965e-005,
          -2.09090686e-005, -2.40697409e-005, -1.09407911e-005,
          1.45877220e-006, 2.18815831e-006, 3.64693051e-006,
          2.67441555e-006, 4.86257420e-007, -3.89005909e-005,
          -4.30337786e-005, -4.42494238e-005, -4.86257420e-007,
          -4.86257420e-007, -2.43128710e-007, -2.43128710e-007, 0.,
          -1.60464933e-005, -8.50950437e-006, -1.70190083e-006,
          2.91754441e-006, -4.86257420e-007, 1.94502968e-006,
          2.91754441e-006, -1.11839199e-005, -1.65327510e-005,
          -1.48308509e-005, -1.89640377e-005, -2.11521965e-005,
          -2.26109696e-005, -2.26109696e-005, -2.30972255e-005,
          -2.30972255e-005, -2.30972255e-005, -2.30972255e-005,
          -2.30972255e-005, -2.26109696e-005, -2.28540976e-005,
          -2.23678398e-005, -2.23678398e-005, -2.18815821e-005,
          -2.16384542e-005, -2.13953244e-005, -2.21247119e-005,
          -2.06659388e-005, -2.28540976e-005, -2.33403553e-005,
          -9.96827657e-006, 2.18815831e-006, 2.43128693e-006,
          1.70190083e-006, 4.13318776e-006, -1.21564347e-006,
          -4.10887515e-005, -4.30337786e-005, -4.27906489e-005,
          -4.86257420e-007, -2.43128710e-007, 0., -2.43128710e-007, 0.,
          -2.43128710e-007, -6.80760331e-006, -2.06659388e-005,
          -7.29386102e-006, -3.16067303e-006, 1.45877220e-006,
          -1.45877220e-006, 2.43128710e-007, 2.18815831e-006,
          -3.16067303e-006, -1.82346521e-005, -2.26109696e-005,
          -2.28540976e-005, -2.26109696e-005, -2.30972255e-005,
          -2.30972255e-005, -2.30972255e-005, -2.28540976e-005,
          -2.30972255e-005, -2.35834832e-005, -2.33403553e-005,
          -2.28540976e-005, -2.23678398e-005, -2.16384542e-005,
          -2.18815821e-005, -2.21247119e-005, -2.16384542e-005,
          -2.16384542e-005, -2.43128688e-005, -1.84777819e-005,
          -3.64693051e-006, -2.43128710e-007, 3.16067303e-006,
          3.89005936e-006, 3.89005936e-006, -2.43128710e-007,
          -4.10887515e-005, -4.06024919e-005, -4.30337786e-005,
          -2.94185720e-005, -2.43128710e-007, 0., -4.86257420e-007,
          -2.43128710e-007, 0., -4.86257420e-007, 0., -7.05073217e-006,
          -2.16384542e-005, -8.75263322e-006, -2.91754441e-006,
          -2.43128710e-007, 7.29386102e-007, 1.21564347e-006,
          2.43128693e-006, 7.29386102e-007, -1.28858210e-005,
          -2.47991265e-005, -2.47991265e-005, -2.28540976e-005,
          -2.33403553e-005, -2.30972255e-005, -2.28540976e-005,
          -2.30972255e-005, -2.30972255e-005, -2.30972255e-005,
          -2.26109696e-005, -2.16384542e-005, -2.18815821e-005,
          -2.21247119e-005, -2.18815821e-005, -2.35834832e-005,
          -2.30972255e-005, -1.19133065e-005, -7.29386102e-007,
          1.45877220e-006, 2.67441555e-006, 3.16067303e-006,
          3.89005936e-006, 0., -3.25792462e-005, -4.08456217e-005,
          -4.32769084e-005, -3.47674031e-005, 2.43128710e-007,
          -2.43128710e-007, 0., 0., 0., 0., 0., -4.86257420e-007,
          -2.43128710e-007, -7.78011872e-006, -2.06659388e-005,
          -6.07821721e-006, -5.34883111e-006, -4.86257420e-007,
          4.86257420e-007, 9.72514840e-007, 0., 1.70190083e-006,
          -1.45877220e-006, -1.11839199e-005, -1.96934252e-005,
          -2.35834832e-005, -2.43128688e-005, -2.30972255e-005,
          -2.23678398e-005, -2.40697409e-005, -2.33403553e-005,
          -2.26109696e-005, -2.33403553e-005, -2.33403553e-005,
          -2.23678398e-005, -1.84777819e-005, -9.96827657e-006,
          -1.45877220e-006, 3.40380166e-006, 2.91754441e-006,
          3.16067303e-006, 4.13318776e-006, 3.40380166e-006,
          1.21564347e-006, -3.18498605e-005, -4.13318776e-005,
          -4.44925499e-005, -4.49788095e-005, -2.43128710e-007,
          -2.43128710e-007, 0., -2.43128710e-007, 0., 0., 0., 0., 0.,
          -2.43128710e-007, -2.43128710e-007, -9.23889093e-006,
          -2.06659388e-005, -1.96934252e-005, -5.10570271e-006,
          -2.91754441e-006, 7.29386102e-007, 2.18815831e-006,
          9.72514840e-007, 1.21564347e-006, 2.18815831e-006,
          7.29386102e-007, -3.40380166e-006, -7.29386102e-006,
          -1.21564344e-005, -1.60464933e-005, -1.75052664e-005,
          -1.65327510e-005, -1.55602374e-005, -1.21564344e-005,
          -7.05073217e-006, -1.70190083e-006, 7.29386102e-007,
          2.18815831e-006, 1.70190083e-006, 2.91754441e-006,
          2.91754441e-006, 4.37631661e-006, 2.67441555e-006,
          2.18815831e-006, -4.06024919e-005, -4.08456217e-005,
          -4.49788095e-005, -4.57081951e-005, -4.52219392e-005,
          -2.43128710e-007, 0., 0., -2.43128710e-007, 0., 0., 0., 0.,
          -2.43128710e-007, -2.43128710e-007, -2.43128710e-007,
          -4.86257420e-007, -4.86257420e-007, -1.33720787e-005,
          -3.52536626e-005, -8.99576207e-006, -5.10570271e-006,
          -7.29386102e-007, 1.45877220e-006, 1.94502968e-006,
          9.72514840e-007, 1.45877220e-006, 1.70190083e-006,
          7.29386102e-007, 2.43128710e-007, 2.43128710e-007, 0.,
          7.29386102e-007, 2.43128710e-007, 4.86257420e-007,
          9.72514840e-007, 1.70190083e-006, 2.43128693e-006,
          2.91754441e-006, 1.94502968e-006, 2.91754441e-006,
          3.40380166e-006, 1.70190083e-006, -1.45877220e-005,
          -3.89005909e-005, -4.23043930e-005, -4.61944510e-005,
          -4.78963520e-005, -4.49788095e-005, -2.35834832e-005,
          -2.43128710e-007, -2.43128710e-007, -2.43128710e-007,
          -2.43128710e-007, 0., 0., 0., 0., -4.86257420e-007,
          2.43128710e-007, 0., -4.86257420e-007, 0., -2.43128710e-007,
          -4.86257420e-007, -2.06659388e-005, -2.52853843e-005,
          -6.56447492e-006, -3.40380166e-006, -2.43128710e-007,
          1.70190083e-006, 0., 2.43128710e-007, 9.72514840e-007,
          9.72514840e-007, 1.70190083e-006, 9.72514840e-007,
          1.70190083e-006, 1.70190083e-006, 2.43128693e-006,
          2.67441555e-006, 2.43128693e-006, 2.91754441e-006,
          2.91754441e-006, 3.89005936e-006, 1.45877220e-006,
          -8.99576207e-006, -4.06024919e-005, -4.06024919e-005,
          -4.44925499e-005, -4.74100962e-005, -2.89323143e-005,
          -4.86257420e-007, -2.43128710e-007, -2.43128710e-007,
          -2.43128710e-007, -2.43128710e-007, -2.43128710e-007,
          -2.43128710e-007, 0., 0., 0., 0., 0., 0., 0., -2.43128710e-007,
          0., 0., 0., 0., -1.09407911e-005, -2.55285140e-005,
          -3.42811472e-005, -9.23889093e-006, -2.43128693e-006,
          -2.18815831e-006, -1.70190083e-006, -4.86257420e-007, 0.,
          4.86257420e-007, 9.72514840e-007, 1.45877220e-006,
          1.70190083e-006, 1.21564347e-006, 1.45877220e-006,
          1.45877220e-006, 1.45877220e-006, 1.21564347e-006,
          -4.13318776e-006, -3.98731063e-005, -4.03593622e-005,
          -4.40062940e-005, -4.71669664e-005, -3.06342154e-005,
          -2.18815831e-006, -4.86257420e-007, -2.43128710e-007,
          2.43128710e-007, 0., 0., 0., -2.43128710e-007,
          -2.43128710e-007, 0., 0., 0., 0., 0., 0., 0., -2.43128710e-007,
          -2.43128710e-007, 0., 0., 0., -2.43128710e-007,
          -2.67441555e-006, -2.16384542e-005, -4.44925499e-005,
          -4.01162361e-005, -4.06024919e-005, -4.06024919e-005,
          -1.21564347e-006, -2.43128693e-006, -3.40380166e-006,
          -4.37631661e-006, -9.72514840e-007, -2.67441555e-006,
          7.29386102e-007, 2.91754441e-006, -2.04228108e-005,
          -4.06024919e-005, -4.13318776e-005, -4.15750073e-005,
          -4.32769084e-005, -4.57081951e-005, -4.64375807e-005,
          -5.10570271e-006, -4.86257420e-007, -4.86257420e-007,
          -4.86257420e-007, -2.43128710e-007, 0., 0., 0., 0., 0., 0. ]
      - [ -2.18088616e-007, 0., 0., 0., 2.18088616e-007, 4.36177231e-007,
          0., 0., 0., 0., 0., -2.18088616e-007, 0., 0., -6.54265875e-007,
          -1.22129622e-005, -1.24310509e-005, -5.45221565e-006,
          3.48941785e-006, 1.04682540e-005, 2.18088621e-006,
          -1.09044311e-006, -3.92559514e-006, -2.18088621e-006,
          3.48941785e-006, 9.81398807e-006, 1.46119373e-005,
          -6.10648112e-006, -5.01603836e-006, -1.54842928e-005,
          -2.18088616e-007, 0., 0., 2.18088616e-007, 0., 2.18088616e-007,
          2.18088616e-007, 0., 2.18088616e-007, 2.18088616e-007, 0.,
          -2.18088616e-007, 0., 0., 2.18088616e-007, 0., 0., 0., 0.,
          2.18088616e-007, 4.36177231e-007, 0., 0., 0., 2.18088616e-007,
          0., 2.18088616e-007, -1.09044311e-006, -7.19692434e-006,
          -1.09044313e-005, 6.10648112e-006, -1.19948736e-005,
          -2.15907730e-005, -1.91917989e-005, -1.61385578e-005,
          -1.13406086e-005, -6.97883570e-006, -5.23412700e-006,
          -5.88839293e-006, -7.63310163e-006, -1.13406086e-005,
          -1.30853168e-005, -1.57023806e-005, -9.15972214e-006, 0.,
          1.26491395e-005, -6.76074706e-006, -6.54265841e-006, 0.,
          2.18088616e-007, 4.36177231e-007, 2.18088616e-007,
          2.18088616e-007, 0., 4.36177231e-007, 2.18088616e-007, 0.,
          2.18088616e-007, 0., 0., -2.18088616e-007, 0., 0., 0.,
          -2.18088616e-007, 0., 0., 4.36177231e-007, 0.,
          -6.54265875e-007, -8.50545621e-006, -5.23412700e-006,
          1.74470892e-006, -8.94163350e-006, -1.67928229e-005,
          -1.72290002e-005, -6.32456977e-006, 2.61706350e-006,
          4.36177243e-006, 4.36177243e-006, 2.18088621e-006,
          -2.18088616e-007, 4.36177231e-007, 1.30853175e-006,
          2.61706350e-006, 3.70750649e-006, 4.36177243e-006,
          5.67030429e-006, 0., -7.41501299e-006, -1.39576714e-005,
          -4.57986107e-006, 5.23412700e-006, -1.30853168e-005,
          -4.79794971e-006, 0., -2.18088616e-007, 2.18088616e-007, 0.,
          0., 0., 0., 0., 2.18088616e-007, 2.18088616e-007,
          -2.18088616e-007, 2.18088616e-007, -2.18088616e-007, 0., 0.,
          0., 4.36177231e-007, 2.18088616e-007, 1.15586972e-005,
          1.94098866e-005, 2.28993049e-005, -2.18088621e-006,
          -1.52662033e-005, -8.72354485e-006, -1.30853175e-006,
          3.92559514e-006, 3.27132921e-006, 1.96279757e-006,
          1.74470892e-006, 6.54265875e-007, 2.18088616e-007,
          1.52662028e-006, 8.72354462e-007, 1.09044311e-006,
          -4.36177231e-007, 4.36177231e-007, 1.96279757e-006,
          -1.09044311e-006, 1.52662028e-006, 2.39897486e-006,
          3.05324056e-006, -3.70750649e-006, -1.15586972e-005,
          -1.52662028e-006, -4.36177231e-007, -1.48300260e-005,
          2.18088616e-007, -2.18088616e-007, 0., 4.36177231e-007,
          2.18088616e-007, 0., -2.18088616e-007, -2.18088616e-007, 0.,
          0., 0., 0., 0., 0., 2.18088616e-007, 0., -4.36177231e-007,
          3.33675598e-005, 1.46119373e-005, -1.33034055e-005,
          -1.35214941e-005, 8.72354462e-007, 3.48941785e-006,
          3.27132921e-006, 0., -1.09044311e-006, 1.30853175e-006,
          1.09044311e-006, -2.18088616e-007, -1.74470892e-006,
          -2.83515215e-006, -3.05324056e-006, -3.05324056e-006,
          -1.96279757e-006, -1.09044311e-006, 2.18088616e-007,
          -8.72354462e-007, 8.72354462e-007, 1.09044311e-006,
          2.18088616e-007, 3.27132921e-006, 1.74470892e-006,
          -4.14368378e-006, -1.02501654e-005, 9.37781078e-006,
          6.97883570e-006, 2.18088616e-007, 2.18088616e-007,
          2.18088616e-007, 0., -4.36177231e-007, -2.18088616e-007,
          -2.18088616e-007, 2.18088616e-007, -2.18088616e-007,
          -2.18088616e-007, 0., 0., 0., -4.36177231e-007,
          -8.50545621e-006, -9.15972214e-006, 5.01603836e-006,
          -1.74470897e-005, -5.45221565e-006, 5.67030429e-006,
          3.92559514e-006, 6.54265875e-007, 2.18088621e-006,
          3.27132921e-006, -2.18088621e-006, -8.06927892e-006,
          -1.43938487e-005, -1.74470897e-005, -2.15907730e-005,
          -2.37716595e-005, -2.35535717e-005, -2.24631276e-005,
          -2.09365080e-005, -2.02822412e-005, -1.83194443e-005,
          -1.04682540e-005, -3.48941785e-006, -8.72354462e-007,
          -4.36177231e-007, 8.72354462e-007, -4.36177231e-007,
          2.39897486e-006, 2.18088621e-006, -1.19948736e-005,
          -1.74470892e-006, 1.91917989e-005, 3.48941785e-006,
          2.18088616e-007, 0., -2.18088616e-007, 0., 2.18088616e-007,
          4.36177231e-007, 0., 2.18088616e-007, 0., 2.18088616e-007, 0.,
          -8.06927892e-006, -1.13406086e-005, -3.70750649e-006,
          -1.48300260e-005, 1.30853175e-006, 5.45221565e-006,
          1.74470892e-006, 1.52662028e-006, 3.05324056e-006,
          -3.70750649e-006, -1.17767859e-005, -1.87556216e-005,
          -2.31173944e-005, -2.35535717e-005, -2.33354822e-005,
          -2.24631276e-005, -2.18088626e-005, -2.24631276e-005,
          -2.24631276e-005, -2.28993049e-005, -2.33354822e-005,
          -2.39897472e-005, -2.37716595e-005, -2.22450399e-005,
          -1.83194443e-005, -7.63310163e-006, -2.18088616e-007,
          1.30853175e-006, 1.52662028e-006, 1.96279757e-006,
          4.36177243e-006, -7.41501299e-006, -2.18088621e-006,
          1.43938487e-005, 8.72354485e-006, -2.18088616e-007, 0., 0., 0.,
          0., 0., 2.18088616e-007, 2.18088616e-007, 0., -7.19692434e-006,
          -9.59589943e-006, -4.36177231e-007, -1.39576714e-005,
          -2.18088616e-007, 3.27132921e-006, 2.39897486e-006,
          2.61706350e-006, -2.61706350e-006, -1.13406086e-005,
          -1.87556216e-005, -2.31173944e-005, -2.35535717e-005,
          -2.33354822e-005, -2.26812172e-005, -2.20269503e-005,
          -2.24631276e-005, -2.28993049e-005, -2.26812172e-005,
          -2.20269503e-005, -2.22450399e-005, -2.28993049e-005,
          -2.31173944e-005, -2.24631276e-005, -2.33354822e-005,
          -2.46440140e-005, -1.87556216e-005, -1.17767859e-005,
          -5.67030429e-006, 1.52662028e-006, 1.30853175e-006,
          1.09044311e-006, 1.96279757e-006, -7.63310163e-006,
          -4.14368378e-006, 1.43938487e-005, 1.11225199e-005, 0.,
          2.18088616e-007, 2.18088616e-007, 0., -2.18088616e-007,
          -2.18088616e-007, 0., -2.18088616e-007, -7.63310163e-006,
          5.88839293e-006, -1.54842928e-005, 8.72354462e-007,
          1.09044311e-006, 4.57986107e-006, 6.54265875e-007,
          -3.27132921e-006, -1.57023806e-005, -2.15907730e-005,
          -2.24631276e-005, -2.22450399e-005, -2.15907730e-005,
          -2.31173944e-005, -2.24631276e-005, -2.20269503e-005,
          -2.24631276e-005, -2.26812172e-005, -2.28993049e-005,
          -2.31173944e-005, -2.31173944e-005, -2.28993049e-005,
          -2.28993049e-005, -2.26812172e-005, -2.22450399e-005,
          -2.00641534e-005, -1.48300260e-005, -1.41757600e-005,
          -1.54842928e-005, -8.50545621e-006, 2.18088621e-006,
          4.36177231e-007, 4.36177243e-006, 6.54265875e-007,
          -8.06927892e-006, 2.18088616e-007, 1.06863426e-005, 0.,
          2.18088616e-007, 4.36177231e-007, -2.18088616e-007, 0., 0., 0.,
          -1.19948736e-005, 1.00320767e-005, -1.35214941e-005,
          -1.96279757e-006, 2.18088621e-006, 2.61706350e-006,
          -1.96279757e-006, -2.39897486e-006, -1.39576714e-005,
          -2.42078368e-005, -2.15907730e-005, -2.13726853e-005,
          -2.28993049e-005, -2.35535717e-005, -2.24631276e-005,
          -2.31173944e-005, -2.28993049e-005, -2.31173944e-005,
          -2.26812172e-005, -2.24631276e-005, -2.35535717e-005,
          -2.35535717e-005, -2.35535717e-005, -2.31173944e-005,
          -2.37716595e-005, -2.18088626e-005, -1.74470897e-005,
          -1.48300260e-005, -1.46119373e-005, -1.50481146e-005,
          -1.76651774e-005, -1.59204683e-005, -2.39897486e-006,
          1.74470892e-006, 6.54265875e-007, 1.74470892e-006,
          -1.11225199e-005, 4.14368378e-006, 1.52662028e-006, 0.,
          2.18088616e-007, 0., 2.18088616e-007, 2.18088616e-007,
          -6.10648112e-006, 3.48941785e-006, -8.28736756e-006,
          -7.19692434e-006, 5.01603836e-006, 1.09044311e-006,
          -6.54265875e-007, -4.14368378e-006, -5.23412700e-006,
          -8.50545621e-006, -1.81013547e-005, -2.35535717e-005,
          -2.33354822e-005, -2.22450399e-005, -2.28993049e-005,
          -2.28993049e-005, -2.20269503e-005, -2.22450399e-005,
          -2.22450399e-005, -2.20269503e-005, -2.20269503e-005,
          -2.24631276e-005, -2.31173944e-005, -2.33354822e-005,
          -2.28993049e-005, -2.31173944e-005, -1.83194443e-005,
          -1.41757600e-005, -1.48300260e-005, -1.39576714e-005,
          -1.63566456e-005, -2.22450399e-005, -2.46440140e-005,
          -1.85375320e-005, -1.09044311e-006, 4.36177243e-006,
          -3.92559514e-006, 3.48941785e-006, -1.30853168e-005,
          1.13406086e-005, -2.72610778e-005, 0., 2.18088616e-007,
          2.18088616e-007, -2.18088616e-007, -2.83515215e-006,
          -8.94163350e-006, -1.19948736e-005, 1.96279757e-006,
          3.92559514e-006, 2.39897486e-006, -1.96279757e-006,
          -5.45221565e-006, -6.76074706e-006, -6.10648112e-006,
          -1.02501654e-005, -1.89737093e-005, -2.26812172e-005,
          -2.33354822e-005, -2.15907730e-005, -2.33354822e-005,
          -2.22450399e-005, -2.24631276e-005, -2.26812172e-005,
          -2.28993049e-005, -2.33354822e-005, -2.26812172e-005,
          -2.33354822e-005, -2.31173944e-005, -2.42078368e-005,
          -1.98460639e-005, -1.43938487e-005, -1.48300260e-005,
          -1.46119373e-005, -1.50481146e-005, -1.96279761e-005,
          -2.22450399e-005, -2.07184185e-005, -2.59525459e-005,
          -1.39576714e-005, -1.30853175e-006, 1.96279757e-006,
          1.30853175e-006, -5.23412700e-006, -1.30853175e-006,
          4.14368378e-006, 0., 2.18088616e-007, 0., -7.85119028e-006,
          1.24310509e-005, -1.04682540e-005, 4.36177231e-007,
          2.83515215e-006, 4.36177231e-007, 2.39897486e-006,
          -5.45221565e-006, -3.92559514e-006, -2.83515215e-006,
          -8.50545621e-006, -8.72354485e-006, -1.02501654e-005,
          -1.85375320e-005, -2.39897472e-005, -2.20269503e-005,
          -2.26812172e-005, -2.39897472e-005, -2.37716595e-005,
          -2.37716595e-005, -2.33354822e-005, -2.31173944e-005,
          -2.37716595e-005, -2.31173944e-005, -2.48621018e-005,
          -2.28993049e-005, -1.52662033e-005, -1.43938487e-005,
          -1.39576714e-005, -1.48300260e-005, -1.72290002e-005,
          -2.18088626e-005, -2.28993049e-005, -2.24631276e-005,
          -2.22450399e-005, -2.24631276e-005, -9.81398807e-006,
          3.05324056e-006, -2.39897486e-006, 5.67030429e-006,
          -1.43938487e-005, 1.30853168e-005, -2.09365080e-005,
          2.18088616e-007, -1.30853175e-006, -1.39576714e-005,
          3.70750649e-006, -9.15972214e-006, 2.83515215e-006,
          1.74470892e-006, 2.39897486e-006, -1.30853175e-006,
          -1.41757600e-005, -1.22129622e-005, -4.14368378e-006,
          -2.83515215e-006, -7.19692434e-006, -8.50545621e-006,
          -1.04682540e-005, -1.78832670e-005, -2.11545957e-005,
          -1.61385578e-005, -9.37781078e-006, -5.45221565e-006,
          -2.39897486e-006, -1.30853175e-006, -6.54265875e-007,
          -1.09044311e-006, -4.79794971e-006, -8.50545621e-006,
          -6.32456977e-006, -1.11225199e-005, -1.57023806e-005,
          -1.70109124e-005, -1.94098866e-005, -1.94098866e-005,
          -2.20269503e-005, -2.24631276e-005, -2.28993049e-005,
          -2.26812172e-005, -2.31173944e-005, -2.18088626e-005,
          -8.72354462e-007, -4.36177231e-007, 1.74470892e-006,
          -1.74470892e-006, -9.59589943e-006, 7.19692434e-006,
          -2.61706350e-006, -5.88839293e-006, -1.33034055e-005,
          -8.50545621e-006, -1.09044311e-006, 3.27132921e-006,
          6.54265875e-007, 2.83515215e-006, -1.02501654e-005,
          -1.48300260e-005, -1.59204683e-005, -1.35214941e-005,
          -2.61706350e-006, -1.09044311e-006, -4.36177243e-006,
          -2.61706350e-006, -1.30853175e-006, -2.61706350e-006,
          -1.74470892e-006, -3.27132921e-006, -5.88839293e-006,
          -8.28736756e-006, -9.59589943e-006, -1.15586972e-005,
          -1.19948736e-005, -1.11225199e-005, -3.92559514e-006,
          2.18088621e-006, 5.45221565e-006, 4.36177243e-006,
          -3.27132921e-006, -1.57023806e-005, -2.52982791e-005,
          -2.26812172e-005, -2.26812172e-005, -2.18088626e-005,
          -2.28993049e-005, -2.18088626e-005, -2.20269503e-005,
          -1.33034055e-005, 1.52662028e-006, 2.18088616e-007,
          3.05324056e-006, -1.22129622e-005, 1.33034055e-005,
          -2.26812172e-005, -1.24310509e-005, 1.22129622e-005,
          -1.17767859e-005, 3.48941785e-006, 2.83515215e-006,
          2.18088621e-006, -7.85119028e-006, -1.96279761e-005,
          -1.57023806e-005, -1.33034055e-005, -1.65747351e-005,
          -1.37395828e-005, -4.14368378e-006, 8.06927892e-006,
          2.83515215e-006, -3.27132921e-006, -8.28736756e-006,
          -1.67928229e-005, -2.48621018e-005, -2.57344564e-005,
          -2.31173944e-005, -2.31173944e-005, -2.44259245e-005,
          -2.57344564e-005, -2.35535717e-005, -1.76651774e-005,
          -1.67928229e-005, -1.59204683e-005, -1.02501654e-005,
          -3.92559514e-006, 2.39897486e-006, -1.87556216e-005,
          -2.35535717e-005, -2.24631276e-005, -2.24631276e-005,
          -2.31173944e-005, -2.26812172e-005, -2.18088626e-005,
          -2.15907730e-005, -2.39897486e-006, 1.30853175e-006,
          2.61706350e-006, -5.88839293e-006, 1.30853175e-006,
          -2.13726853e-005, 1.74470892e-006, 1.96279757e-006,
          -6.32456977e-006, 3.05324056e-006, 1.09044311e-006,
          -1.52662028e-006, -1.67928229e-005, -2.31173944e-005,
          -2.11545957e-005, -1.67928229e-005, -1.43938487e-005,
          -1.76651774e-005, -8.06927892e-006, 9.15972214e-006,
          3.70750649e-006, -1.96279757e-006, -2.83515215e-006,
          -8.06927892e-006, -1.76651774e-005, -2.20269503e-005,
          -2.07184185e-005, -2.05003307e-005, -2.37716595e-005,
          -2.13726853e-005, -1.59204683e-005, -1.35214941e-005,
          -1.26491395e-005, -1.37395828e-005, -1.76651774e-005,
          -2.76972551e-005, -1.52662028e-006, -1.33034055e-005,
          -2.26812172e-005, -2.28993049e-005, -2.28993049e-005,
          -2.28993049e-005, -2.31173944e-005, -2.26812172e-005,
          -2.28993049e-005, -1.13406086e-005, 1.96279757e-006,
          -8.72354462e-007, 2.83515215e-006, -1.00320767e-005,
          -9.15972214e-006, -1.52662028e-006, -5.01603836e-006,
          1.30853175e-006, 1.09044311e-006, 2.39897486e-006,
          -6.32456977e-006, -2.11545957e-005, -2.18088626e-005,
          -2.35535717e-005, -2.05003307e-005, -2.05003307e-005,
          -2.00641534e-005, -6.54265841e-006, 9.37781078e-006,
          -4.57986107e-006, 2.61706350e-006, -1.74470892e-006,
          -1.96279757e-006, -6.10648112e-006, -1.91917989e-005,
          -2.44259245e-005, -2.33354822e-005, -2.46440140e-005,
          -1.89737093e-005, -1.37395828e-005, -1.50481146e-005,
          -1.50481146e-005, -1.59204683e-005, -2.24631276e-005,
          -2.57344564e-005, -7.19692434e-006, -5.67030429e-006,
          -2.39897472e-005, -2.07184185e-005, -2.39897472e-005,
          -2.26812172e-005, -2.33354822e-005, -2.44259245e-005,
          -2.15907730e-005, -1.83194443e-005, 1.30853175e-006,
          4.36177231e-007, 2.39897486e-006, -9.37781078e-006,
          1.24310509e-005, -8.28736756e-006, -7.63310163e-006,
          1.30853175e-006, 8.72354462e-007, 2.18088621e-006,
          -8.72354485e-006, -2.20269503e-005, -2.18088626e-005,
          -2.31173944e-005, -2.44259245e-005, -2.26812172e-005,
          -2.63887232e-005, -4.14368378e-006, -2.18088616e-007,
          -1.70109124e-005, -1.96279757e-006, 2.18088616e-007,
          1.09044311e-006, 2.18088616e-007, -3.48941785e-006,
          -1.37395828e-005, -2.09365080e-005, -1.63566456e-005,
          -1.04682540e-005, -1.15586972e-005, -1.22129622e-005,
          -1.26491395e-005, -1.91917989e-005, -2.20269503e-005,
          -2.74791655e-005, -1.37395828e-005, 1.74470892e-006,
          -2.22450399e-005, -2.18088626e-005, -2.39897472e-005,
          -2.22450399e-005, -2.26812172e-005, -2.33354822e-005,
          -2.18088626e-005, -2.00641534e-005, -2.18088621e-006,
          1.96279757e-006, 1.52662028e-006, -7.19692434e-006,
          1.02501654e-005, -9.59589943e-006, -7.41501299e-006,
          2.18088621e-006, 6.54265875e-007, 1.52662028e-006,
          -1.26491395e-005, -2.42078368e-005, -2.22450399e-005,
          -2.26812172e-005, -2.39897472e-005, -2.52982791e-005,
          -2.39897472e-005, -1.09044311e-006, 0., -2.39897486e-006,
          4.79794971e-006, 9.37781078e-006, 1.09044313e-005,
          9.15972214e-006, 1.11225199e-005, 8.28736756e-006,
          3.27132921e-006, 9.59589943e-006, 1.19948736e-005,
          1.02501654e-005, 9.37781078e-006, 5.23412700e-006,
          6.54265875e-007, -2.83515215e-006, -2.61706350e-006,
          -3.05324056e-006, 1.96279757e-006, -1.26491395e-005,
          -2.61706336e-005, -2.37716595e-005, -2.26812172e-005,
          -2.18088626e-005, -2.24631276e-005, -2.13726853e-005,
          -2.20269503e-005, -6.32456977e-006, 2.18088621e-006,
          2.39897486e-006, -5.45221565e-006, 5.01603836e-006,
          -2.18088621e-006, -5.67030429e-006, 2.61706350e-006,
          6.54265875e-007, 0., -1.59204683e-005, -2.46440140e-005,
          -2.22450399e-005, -2.24631276e-005, -2.44259245e-005,
          -2.22450399e-005, -7.19692434e-006, 4.79794971e-006,
          1.09044311e-006, 5.23412700e-006, 6.32456977e-006,
          1.09044313e-005, 1.04682540e-005, 1.09044313e-005,
          7.85119028e-006, 7.63310163e-006, 6.97883570e-006,
          7.63310163e-006, 5.88839293e-006, 5.88839293e-006,
          6.97883570e-006, 2.18088621e-006, 1.74470892e-006,
          3.48941785e-006, 1.30853175e-006, 2.18088621e-006,
          -2.61706350e-006, -2.61706350e-006, -1.67928229e-005,
          -2.35535717e-005, -2.37716595e-005, -2.20269503e-005,
          -2.31173944e-005, -2.05003307e-005, -2.24631276e-005,
          -9.37781078e-006, 2.39897486e-006, 1.30853175e-006,
          -2.18088621e-006, 6.54265875e-007, -3.70750649e-006,
          -3.27132921e-006, 3.27132921e-006, -8.72354462e-007,
          -8.72354462e-007, -1.83194443e-005, -2.37716595e-005,
          -2.20269503e-005, -2.33354822e-005, -2.42078368e-005,
          -8.94163350e-006, -6.10648112e-006, -2.05003307e-005,
          -8.50545621e-006, 3.48941785e-006, -1.19948736e-005,
          -1.65747351e-005, -1.50481146e-005, -4.57986107e-006,
          2.39897486e-006, 1.52662028e-006, 1.30853175e-006,
          6.54265875e-007, -7.41501299e-006, -1.81013547e-005,
          -2.09365080e-005, -2.31173944e-005, -2.11545957e-005,
          -1.83194443e-005, -4.14368378e-006, -2.83515215e-006,
          -2.57344564e-005, -1.72290002e-005, -3.05324056e-006,
          -2.50801913e-005, -2.13726853e-005, -2.26812172e-005,
          -2.37716595e-005, -2.05003307e-005, -2.20269503e-005,
          -1.09044313e-005, 3.05324056e-006, 1.30853175e-006,
          -2.18088621e-006, -1.52662028e-006, 2.61706350e-006,
          -2.39897486e-006, 1.96279757e-006, 2.18088616e-007,
          -1.52662028e-006, -2.05003307e-005, -2.26812172e-005,
          -2.26812172e-005, -2.24631276e-005, -2.48621018e-005,
          -8.94163350e-006, -1.04682540e-005, -2.66068109e-005,
          -1.11225199e-005, 1.74470892e-006, -2.02822412e-005,
          -2.42078368e-005, -2.37716595e-005, -1.72290002e-005,
          -3.48941785e-006, 2.83515215e-006, 2.61706350e-006,
          1.74470892e-006, 1.30853175e-006, -8.50545621e-006,
          -1.65747351e-005, -2.00641534e-005, -2.15907730e-005,
          -2.33354822e-005, -1.04682540e-005, 2.18088616e-007,
          -2.15907730e-005, -1.30853168e-005, -4.36177243e-006,
          -2.37716595e-005, -2.20269503e-005, -2.26812172e-005,
          -2.39897472e-005, -2.02822412e-005, -2.18088626e-005,
          -1.06863426e-005, 1.09044311e-006, 1.30853175e-006,
          -2.39897486e-006, -4.36177231e-007, -6.54265875e-007,
          -3.48941785e-006, 3.27132921e-006, 0., -1.96279757e-006,
          -2.13726853e-005, -2.24631276e-005, -2.26812172e-005,
          -2.20269503e-005, -2.48621018e-005, -1.46119373e-005,
          2.61706350e-006, -3.92559514e-006, 4.36177231e-007,
          3.92559514e-006, -2.61706350e-006, -3.48941785e-006,
          -1.96279757e-006, -2.83515215e-006, 3.48941785e-006,
          8.28736756e-006, 8.50545621e-006, 6.10648112e-006,
          7.63310163e-006, 9.15972214e-006, 9.37781078e-006,
          3.05324056e-006, -6.54265875e-007, -3.48941785e-006,
          -6.54265875e-007, 4.79794971e-006, 0., 1.96279757e-006,
          -6.32456977e-006, -2.42078368e-005, -2.26812172e-005,
          -2.24631276e-005, -2.33354822e-005, -2.11545957e-005,
          -2.22450399e-005, -1.11225199e-005, 2.18088616e-007,
          1.30853175e-006, -1.96279757e-006, -4.36177231e-007,
          2.18088621e-006, -3.27132921e-006, 1.30853175e-006,
          8.72354462e-007, -1.30853175e-006, -2.07184185e-005,
          -2.35535717e-005, -2.33354822e-005, -2.22450399e-005,
          -2.50801913e-005, -2.02822412e-005, 3.27132921e-006,
          1.52662028e-006, 1.09044311e-006, 1.96279757e-006,
          -2.09365080e-005, -3.05324065e-005, -3.11866715e-005,
          -2.76972551e-005, -2.11545957e-005, -1.78832670e-005,
          -6.76074706e-006, 6.54265875e-007, 2.18088616e-007,
          -8.72354462e-007, -2.18088621e-006, -1.04682540e-005,
          -2.07184185e-005, -2.35535717e-005, -9.15972214e-006,
          6.54265875e-007, 1.74470892e-006, 1.96279757e-006,
          -1.37395828e-005, -2.24631276e-005, -2.28993049e-005,
          -2.18088626e-005, -2.28993049e-005, -2.26812172e-005,
          -2.18088626e-005, -8.94163350e-006, 8.72354462e-007,
          1.52662028e-006, -2.61706350e-006, -1.30853175e-006,
          3.27132921e-006, -3.05324056e-006, 2.39897486e-006,
          8.72354462e-007, 2.18088616e-007, -1.89737093e-005,
          -2.28993049e-005, -2.33354822e-005, -2.33354822e-005,
          -2.26812172e-005, -2.18088626e-005, 4.36177231e-007,
          1.74470892e-006, 1.52662028e-006, 5.01603836e-006,
          -7.41501299e-006, -1.02501654e-005, -5.01603836e-006,
          1.09044311e-006, 2.83515215e-006, 0., 4.14368378e-006,
          1.96279757e-006, 1.09044311e-006, 6.76074706e-006,
          1.06863426e-005, 8.94163350e-006, 2.61706350e-006,
          -8.72354462e-007, 6.76074706e-006, 7.19692434e-006,
          1.30853175e-006, 1.96279757e-006, -1.76651774e-005,
          -2.18088626e-005, -2.20269503e-005, -2.37716595e-005,
          -2.33354822e-005, -2.18088626e-005, -2.18088626e-005,
          -6.10648112e-006, 1.09044311e-006, 4.36177231e-007,
          -2.39897486e-006, 0., -9.81398807e-006, -1.24310509e-005,
          2.61706350e-006, 1.30853175e-006, 1.30853175e-006,
          -1.65747351e-005, -2.24631276e-005, -2.37716595e-005,
          -2.33354822e-005, -2.42078368e-005, -2.48621018e-005,
          -2.39897486e-006, 2.39897486e-006, 2.18088621e-006,
          2.61706350e-006, 1.96279757e-006, 4.57986107e-006,
          1.13406086e-005, 1.15586972e-005, 1.11225199e-005,
          1.24310509e-005, 8.50545621e-006, 1.96279757e-006,
          1.30853175e-006, 3.70750649e-006, 7.63310163e-006,
          9.59589943e-006, 1.15586972e-005, 1.15586972e-005,
          9.81398807e-006, 1.02501654e-005, 7.19692434e-006,
          5.23412700e-006, -1.98460639e-005, -2.31173944e-005,
          -2.02822412e-005, -2.26812172e-005, -2.33354822e-005,
          -2.07184185e-005, -2.05003307e-005, -3.27132921e-006,
          -6.54265875e-007, 1.52662028e-006, -3.48941785e-006,
          -4.36177231e-007, -1.57023806e-005, -1.46119373e-005,
          2.18088616e-007, 8.72354462e-007, 2.83515215e-006,
          -1.15586972e-005, -2.44259245e-005, -2.26812172e-005,
          -2.20269503e-005, -2.24631276e-005, -2.52982791e-005,
          -6.10648112e-006, 3.70750649e-006, 3.05324056e-006,
          1.52662028e-006, 3.70750649e-006, 8.06927892e-006,
          1.02501654e-005, 1.13406086e-005, 1.19948736e-005,
          9.37781078e-006, 4.36177243e-006, 3.70750649e-006,
          3.92559514e-006, 3.05324056e-006, 3.70750649e-006,
          4.36177243e-006, 9.37781078e-006, 1.06863426e-005,
          9.59589943e-006, 1.00320767e-005, 1.19948736e-005,
          7.85119028e-006, -1.50481146e-005, -2.20269503e-005,
          -2.26812172e-005, -2.22450399e-005, -2.31173944e-005,
          -2.18088626e-005, -1.63566456e-005, -3.05324056e-006,
          -6.54265875e-007, 1.52662028e-006, -1.63566456e-005,
          -2.70429882e-005, -6.10648112e-006, -5.67030429e-006,
          4.36177231e-007, -2.18088616e-007, 1.09044311e-006,
          -5.01603836e-006, -2.37716595e-005, -2.18088626e-005,
          -2.24631276e-005, -2.28993049e-005, -2.61706336e-005,
          -1.89737093e-005, -4.14368378e-006, 3.05324056e-006,
          -7.63310163e-006, -1.33034055e-005, -8.50545621e-006,
          -6.54265841e-006, -7.41501299e-006, -7.41501299e-006,
          -1.24310509e-005, -1.57023806e-005, -1.48300260e-005,
          -1.48300260e-005, -1.46119373e-005, -8.72354485e-006,
          -3.27132921e-006, -4.14368378e-006, -8.72354462e-007,
          4.57986107e-006, 9.37781078e-006, 7.63310163e-006,
          -6.54265841e-006, -1.48300260e-005, -1.50481146e-005,
          -1.94098866e-005, -2.28993049e-005, -2.33354822e-005,
          -2.18088626e-005, -1.22129622e-005, -2.39897486e-006,
          -4.36177231e-007, -9.81398807e-006, -3.44580003e-005,
          -3.00962292e-005, 3.48941785e-006, -8.72354462e-007,
          -1.52662028e-006, 1.09044311e-006, 6.54265875e-007,
          -6.54265875e-007, -1.85375320e-005, -2.28993049e-005,
          -2.24631276e-005, -2.31173944e-005, -2.15907730e-005,
          -2.74791655e-005, -1.00320767e-005, 5.23412700e-006,
          -1.06863426e-005, -2.02822412e-005, -1.59204683e-005,
          -1.63566456e-005, -1.72290002e-005, -2.02822412e-005,
          -2.44259245e-005, -2.46440140e-005, -2.46440140e-005,
          -2.33354822e-005, -2.50801913e-005, -2.35535717e-005,
          -1.26491395e-005, -8.50545621e-006, -7.85119028e-006,
          -4.79794971e-006, 8.72354485e-006, 8.28736756e-006,
          -1.24310509e-005, -1.74470897e-005, -1.30853168e-005,
          -1.48300260e-005, -1.67928229e-005, -2.07184185e-005,
          -2.07184185e-005, -6.54265841e-006, -2.61706350e-006,
          -2.18088621e-006, -1.35214941e-005, -3.72931536e-005,
          -3.18409366e-005, 1.11225199e-005, 1.00320767e-005,
          -4.36177243e-006, 8.72354462e-007, 8.72354462e-007,
          1.74470892e-006, -1.13406086e-005, -2.39897472e-005,
          -2.42078368e-005, -2.37716595e-005, -2.22450399e-005,
          -2.70429882e-005, -8.72354485e-006, 6.10648112e-006,
          -7.19692434e-006, -1.59204683e-005, -1.59204683e-005,
          -1.52662033e-005, -1.76651774e-005, -2.26812172e-005,
          -2.35535717e-005, -2.28993049e-005, -2.39897472e-005,
          -2.26812172e-005, -2.37716595e-005, -2.50801913e-005,
          -2.42078368e-005, -1.43938487e-005, -6.10648112e-006,
          -6.54265841e-006, 3.48941785e-006, 6.32456977e-006,
          -4.57986107e-006, -1.48300260e-005, -1.43938487e-005,
          -1.39576714e-005, -1.46119373e-005, -1.61385578e-005,
          -1.09044313e-005, -3.48941785e-006, -2.18088621e-006,
          -1.74470892e-006, -1.46119373e-005, -3.48941794e-005,
          -3.81655082e-005, 1.28672282e-005, 2.15907730e-005,
          -2.61706350e-006, -4.36177231e-007, 2.83515215e-006,
          2.18088616e-007, -1.96279757e-006, -2.00641534e-005,
          -2.35535717e-005, -2.18088626e-005, -2.39897472e-005,
          -2.52982791e-005, -1.63566456e-005, 2.18088616e-007,
          -9.15972214e-006, -1.52662033e-005, -1.50481146e-005,
          -1.65747351e-005, -2.18088626e-005, -2.35535717e-005,
          -2.24631276e-005, -2.33354822e-005, -2.33354822e-005,
          -2.33354822e-005, -2.26812172e-005, -2.28993049e-005,
          -2.33354822e-005, -2.22450399e-005, -1.52662033e-005,
          -4.79794971e-006, -3.48941785e-006, -4.79794971e-006,
          -4.36177243e-006, -8.06927892e-006, -1.72290002e-005,
          -1.11225199e-005, -1.46119373e-005, -1.09044313e-005,
          8.72354462e-007, -2.39897486e-006, -4.36177231e-007,
          -3.48941785e-006, -2.02822412e-005, -3.09685856e-005,
          -4.42719902e-005, 2.18088621e-006, 2.72610778e-005,
          7.41501299e-006, -1.96279757e-006, -8.72354462e-007,
          8.72354462e-007, 2.39897486e-006, -1.00320767e-005,
          -2.35535717e-005, -2.26812172e-005, -2.24631276e-005,
          -2.22450399e-005, -2.24631276e-005, -1.67928229e-005,
          -1.63566456e-005, -1.63566456e-005, -1.67928229e-005,
          -1.98460639e-005, -2.35535717e-005, -2.35535717e-005,
          -2.28993049e-005, -2.28993049e-005, -2.28993049e-005,
          -2.31173944e-005, -2.28993049e-005, -2.26812172e-005,
          -2.24631276e-005, -2.33354822e-005, -2.35535717e-005,
          -1.41757600e-005, -6.54265841e-006, -6.76074706e-006,
          -7.41501299e-006, -5.67030429e-006, -1.11225199e-005,
          -1.74470897e-005, -1.61385578e-005, -3.48941785e-006,
          4.36177231e-007, -1.09044311e-006, -1.09044311e-006,
          -8.28736756e-006, -2.22450399e-005, -3.57665340e-005,
          -4.44900797e-005, 0., 2.61706350e-006, 1.83194443e-005,
          -3.05324056e-006, 1.96279757e-006, -2.61706350e-006,
          1.09044311e-006, 8.72354462e-007, -1.57023806e-005,
          -2.39897472e-005, -2.39897472e-005, -2.15907730e-005,
          -1.57023806e-005, -1.39576714e-005, -1.50481146e-005,
          -1.41757600e-005, -1.87556216e-005, -2.37716595e-005,
          -2.35535717e-005, -2.35535717e-005, -2.31173944e-005,
          -2.28993049e-005, -2.28993049e-005, -2.26812172e-005,
          -2.28993049e-005, -2.28993049e-005, -2.28993049e-005,
          -2.18088626e-005, -2.28993049e-005, -2.26812172e-005,
          -1.39576714e-005, -6.97883570e-006, -6.97883570e-006,
          -7.41501299e-006, -8.50545621e-006, -1.19948736e-005,
          -9.59589943e-006, 8.72354462e-007, -2.18088616e-007,
          4.36177231e-007, -2.61706350e-006, -1.00320767e-005,
          -3.42399144e-005, -3.96921278e-005, -4.44900797e-005, 0., 0.,
          -6.97883570e-006, 8.72354485e-006, -3.27132921e-006, 0.,
          6.54265875e-007, 8.72354462e-007, -2.61706350e-006,
          -1.94098866e-005, -2.33354822e-005, -1.70109124e-005,
          -1.61385578e-005, -1.50481146e-005, -1.52662033e-005,
          -1.76651774e-005, -2.11545957e-005, -2.48621018e-005,
          -2.33354822e-005, -2.33354822e-005, -2.33354822e-005,
          -2.28993049e-005, -2.28993049e-005, -2.31173944e-005,
          -2.31173944e-005, -2.28993049e-005, -2.26812172e-005,
          -2.22450399e-005, -2.15907730e-005, -2.50801913e-005,
          -2.24631276e-005, -1.33034055e-005, -7.19692434e-006,
          -7.19692434e-006, -5.88839293e-006, -1.11225199e-005,
          -6.54265841e-006, 1.52662028e-006, -8.72354462e-007,
          4.36177231e-007, -2.39897486e-006, -9.15972214e-006,
          -3.48941794e-005, -4.23091915e-005, -2.39897472e-005,
          2.18088616e-007, 0., 0., 1.33034055e-005, 1.09044311e-006,
          6.54265875e-007, 1.52662028e-006, -1.52662028e-006,
          1.74470892e-006, -4.79794971e-006, -2.07184185e-005,
          -1.61385578e-005, -1.46119373e-005, -1.61385578e-005,
          -1.57023806e-005, -2.07184185e-005, -2.33354822e-005,
          -2.35535717e-005, -2.37716595e-005, -2.33354822e-005,
          -2.31173944e-005, -2.28993049e-005, -2.28993049e-005,
          -2.28993049e-005, -2.28993049e-005, -2.31173944e-005,
          -2.31173944e-005, -2.28993049e-005, -2.33354822e-005,
          -2.11545957e-005, -2.31173944e-005, -2.52982791e-005,
          -1.22129622e-005, -5.45221565e-006, -7.41501299e-006,
          -6.32456977e-006, -1.52662028e-006, 6.54265875e-007,
          6.54265875e-007, -2.18088616e-007, 2.83515215e-006,
          -7.19692434e-006, -3.86016873e-005, -3.96921278e-005,
          2.18088616e-007, -2.18088616e-007, 0., -2.18088616e-007, 0.,
          6.76074706e-006, -2.61706350e-006, -2.39897486e-006,
          1.52662028e-006, -1.09044311e-006, 1.74470892e-006,
          -4.36177243e-006, -1.37395828e-005, -1.70109124e-005,
          -1.70109124e-005, -1.94098866e-005, -2.13726853e-005,
          -2.24631276e-005, -2.24631276e-005, -2.26812172e-005,
          -2.28993049e-005, -2.33354822e-005, -2.35535717e-005,
          -2.35535717e-005, -2.33354822e-005, -2.31173944e-005,
          -2.26812172e-005, -2.24631276e-005, -2.24631276e-005,
          -2.18088626e-005, -2.13726853e-005, -2.20269503e-005,
          -2.28993049e-005, -2.31173944e-005, -1.17767859e-005,
          -5.45221565e-006, -6.54265875e-007, 6.54265875e-007,
          -1.30853175e-006, 8.72354462e-007, 2.18088616e-007,
          -2.70429882e-005, -3.86016873e-005, -3.83835977e-005,
          -2.18088616e-007, 0., 0., -4.36177231e-007, 0.,
          -4.36177231e-007, -5.88839293e-006, 2.39897486e-006,
          -4.79794971e-006, -2.61706350e-006, 1.09044311e-006,
          -2.18088616e-007, 8.72354462e-007, -2.39897486e-006,
          -1.15586972e-005, -1.72290002e-005, -2.18088626e-005,
          -2.28993049e-005, -2.33354822e-005, -2.35535717e-005,
          -2.37716595e-005, -2.33354822e-005, -2.28993049e-005,
          -2.26812172e-005, -2.35535717e-005, -2.35535717e-005,
          -2.28993049e-005, -2.26812172e-005, -2.20269503e-005,
          -2.20269503e-005, -2.20269503e-005, -2.18088626e-005,
          -2.28993049e-005, -2.24631276e-005, -1.63566456e-005,
          -5.45221565e-006, -1.96279757e-006, 1.09044311e-006,
          1.30853175e-006, 1.09044311e-006, -1.85375320e-005,
          -3.66388886e-005, -3.66388886e-005, -3.90378627e-005,
          -2.63887232e-005, 0., -2.18088616e-007, -4.36177231e-007,
          -2.18088616e-007, -2.18088616e-007, -6.54265875e-007,
          -4.36177231e-007, -5.67030429e-006, 3.27132921e-006,
          -7.63310163e-006, -8.72354462e-007, 6.54265875e-007,
          -8.72354462e-007, 1.96279757e-006, 0., -9.81398807e-006,
          -1.81013547e-005, -2.46440140e-005, -2.55163686e-005,
          -2.20269503e-005, -2.37716595e-005, -2.35535717e-005,
          -2.28993049e-005, -2.28993049e-005, -2.26812172e-005,
          -2.24631276e-005, -2.28993049e-005, -2.33354822e-005,
          -2.35535717e-005, -2.15907730e-005, -2.44259245e-005,
          -2.35535717e-005, -1.76651774e-005, -1.04682540e-005,
          -2.39897486e-006, 2.18088616e-007, 8.72354462e-007,
          2.18088621e-006, -2.18088616e-007, -1.57023806e-005,
          -3.64207990e-005, -3.66388886e-005, -3.88197732e-005,
          -3.14047611e-005, -2.18088616e-007, -2.18088616e-007, 0.,
          2.18088616e-007, 0., 2.18088616e-007, 0., -4.36177231e-007,
          2.18088616e-007, -6.76074706e-006, -1.67928229e-005,
          -4.57986107e-006, -1.09044311e-006, -4.36177231e-007, 0.,
          6.54265875e-007, 1.74470892e-006, 0., -8.06927892e-006,
          -1.74470897e-005, -2.33354822e-005, -2.31173944e-005,
          -2.31173944e-005, -2.33354822e-005, -2.31173944e-005,
          -2.37716595e-005, -2.35535717e-005, -2.28993049e-005,
          -2.28993049e-005, -2.33354822e-005, -2.00641534e-005,
          -1.72290002e-005, -1.15586972e-005, -2.83515215e-006,
          6.54265875e-007, 2.39897486e-006, 4.36177231e-007,
          2.83515215e-006, -8.72354462e-007, -9.15972214e-006,
          -3.59846235e-005, -3.70750640e-005, -4.01283069e-005,
          -4.01283069e-005, 0., -2.18088616e-007, 0., 0.,
          2.18088616e-007, 0., 2.18088616e-007, 0., 2.18088616e-007,
          -2.18088616e-007, -2.18088616e-007, -8.06927892e-006,
          -1.19948736e-005, -3.48941785e-006, -1.09044311e-006,
          2.18088616e-007, -2.18088616e-007, 1.30853175e-006,
          -2.18088616e-007, 2.18088616e-007, 2.18088616e-007,
          -1.96279757e-006, -8.72354485e-006, -1.15586972e-005,
          -1.50481146e-005, -1.78832670e-005, -1.91917989e-005,
          -1.87556216e-005, -1.72290002e-005, -1.39576714e-005,
          -1.09044313e-005, -5.01603836e-006, -1.09044311e-006,
          1.52662028e-006, 1.09044311e-006, 8.72354462e-007,
          1.96279757e-006, 1.96279757e-006, 4.36177231e-007,
          -1.81013547e-005, -3.14047611e-005, -3.64207990e-005,
          -4.03463928e-005, -4.10006614e-005, -4.03463928e-005, 0.,
          2.18088616e-007, 2.18088616e-007, 0., 2.18088616e-007, 0., 0.,
          2.18088616e-007, -2.18088616e-007, 0., -2.18088616e-007,
          -6.54265875e-007, -2.18088616e-007, -1.15586972e-005,
          -1.24310509e-005, -3.70750649e-006, 2.18088616e-007, 0.,
          1.30853175e-006, 2.18088616e-007, 6.54265875e-007,
          8.72354462e-007, 1.52662028e-006, 8.72354462e-007, 0.,
          -2.18088616e-007, 2.18088616e-007, 4.36177231e-007,
          -4.36177231e-007, 2.18088616e-007, 1.52662028e-006,
          1.30853175e-006, 2.18088616e-007, 2.18088616e-007,
          2.18088616e-007, 0., 2.18088616e-007, 0., -3.33675598e-005,
          -3.46760899e-005, -3.79474186e-005, -4.12187474e-005,
          -4.29634565e-005, -4.01283069e-005, -2.09365080e-005,
          -2.18088616e-007, 0., 0., -2.18088616e-007, 2.18088616e-007,
          0., 2.18088616e-007, 0., -4.36177231e-007, 0., 0.,
          -4.36177231e-007, 0., 2.18088616e-007, 0., -1.76651774e-005,
          -5.23412700e-006, -2.39897486e-006, -2.18088616e-007,
          4.36177231e-007, 1.52662028e-006, -6.54265875e-007, 0., 0.,
          -4.36177231e-007, -4.36177231e-007, 0., 4.36177231e-007,
          -2.18088616e-007, -2.18088616e-007, 4.36177231e-007, 0.,
          6.54265875e-007, 8.72354462e-007, 1.30853175e-006,
          -1.09044311e-006, -1.52662028e-006, -3.59846235e-005,
          -3.64207990e-005, -4.01283069e-005, -4.23091915e-005,
          -2.57344564e-005, -2.18088616e-007, -2.18088616e-007,
          -2.18088616e-007, -2.18088616e-007, 0., -2.18088616e-007, 0.,
          4.36177231e-007, 0., 2.18088616e-007, 2.18088616e-007, 0.,
          2.18088616e-007, 2.18088616e-007, 0., 2.18088616e-007,
          2.18088616e-007, -2.18088616e-007, 6.54265875e-007,
          -6.97883570e-006, -5.23412700e-006, -8.72354462e-007,
          -1.30853175e-006, -1.30853175e-006, 0., -2.18088616e-007,
          4.36177231e-007, 4.36177231e-007, 8.72354462e-007,
          1.30853175e-006, 1.30853175e-006, 4.36177231e-007,
          2.18088616e-007, 6.54265875e-007, 2.18088616e-007,
          4.36177231e-007, -2.61706350e-006, -5.88839293e-006,
          -1.94098866e-005, -3.31494703e-005, -3.92559523e-005,
          -4.18730160e-005, -2.76972551e-005, -2.18088621e-006,
          -4.36177231e-007, -2.18088616e-007, 0., 0., 0., 0., 0., 0.,
          2.18088616e-007, 0., 2.18088616e-007, 0., 0., 0.,
          2.18088616e-007, 0., 0., 4.36177231e-007, 2.18088616e-007,
          2.18088616e-007, 0., -1.96279757e-006, -1.87556216e-005,
          -2.79153428e-005, -6.54265841e-006, -2.39897486e-006,
          4.36177231e-007, -6.54265875e-007, -1.09044311e-006,
          -1.09044311e-006, -1.30853175e-006, -1.30853175e-006,
          -1.52662028e-006, -1.09044311e-006, 4.36177231e-007,
          -6.97883570e-006, -2.13726853e-005, -2.31173944e-005,
          -3.35856457e-005, -3.83835977e-005, -4.05644823e-005,
          -4.12187474e-005, -4.36177243e-006, -2.18088616e-007,
          -4.36177231e-007, -4.36177231e-007, -2.18088616e-007, 0., 0.,
          0., 2.18088616e-007, 2.18088616e-007, 0. ]
      - [ 0., 2.27966893e-007, 0., 0., 2.27966893e-007, 0.,
          -2.27966893e-007, 2.27966893e-007, 0., 0., 0., 0., 0., 0.,
          -6.83900680e-007, -1.25381785e-005, 9.11867573e-006,
          1.50458145e-005, 3.51068993e-005, 3.14594290e-005,
          2.57602587e-005, 2.43924569e-005, 1.70975163e-005,
          5.47120544e-006, 1.70975163e-005, 2.69000921e-005,
          5.24323832e-006, 2.27966893e-006, 9.57460907e-006,
          -1.61856497e-005, -2.27966893e-007, 2.27966893e-007, 0.,
          2.27966893e-007, -2.27966893e-007, 2.27966893e-007,
          2.27966893e-007, 0., -2.27966893e-007, -2.27966893e-007, 0.,
          0., -2.27966893e-007, 0., 0., 0., 0., 0., 0., 0., 0., 0., 0.,
          0., 0., -2.27966893e-007, 0., -1.13983447e-006,
          4.10340408e-006, 2.12009199e-005, 3.07755290e-005,
          1.73254830e-005, 7.52290725e-006, 9.11867573e-007,
          -2.73560272e-006, -7.29494059e-006, -9.11867573e-006,
          -9.57460907e-006, -1.27661460e-005, -1.13983442e-005,
          -1.32220794e-005, -6.15510589e-006, -2.73560272e-006,
          4.10340408e-006, 1.23102118e-005, -7.29494059e-006,
          -9.80257573e-006, -7.06697347e-006, 0., 4.55933787e-007,
          4.55933787e-007, 4.55933787e-007, -4.55933787e-007, 0.,
          2.27966893e-007, 2.27966893e-007, -2.27966893e-007, 0., 0., 0.,
          0., 0., 2.27966893e-007, 2.27966893e-007, -2.27966893e-007,
          -2.27966893e-007, -2.27966893e-007, 0., 0., -6.83900680e-007,
          -9.11867573e-006, 7.52290725e-006, 2.30246551e-005,
          2.05170199e-005, 7.97884059e-006, -1.59576825e-006,
          -3.41950340e-006, -4.55933787e-006, -3.64747029e-006,
          -3.19153651e-006, -2.50763583e-006, -2.73560272e-006,
          -2.96356961e-006, -3.19153651e-006, -3.41950340e-006,
          -4.78730453e-006, -7.06697347e-006, -7.97884059e-006,
          -1.36780136e-005, -1.68695497e-005, -1.09424109e-005,
          -2.50763583e-006, -1.34500460e-005, -1.43619136e-005,
          -5.24323832e-006, 2.27966893e-007, -2.27966893e-007, 0.,
          -2.27966893e-007, 0., -2.27966893e-007, -2.27966893e-007,
          -2.27966893e-007, 0., 0., 0., 0., 0., 2.27966893e-007,
          -2.27966893e-007, -2.27966893e-007, 0., 0., -9.11867573e-007,
          -1.07144433e-005, -6.83900680e-007, 2.39365236e-005,
          5.69917211e-006, -4.10340408e-006, -3.64747029e-006,
          -1.59576825e-006, -1.82373515e-006, -1.59576825e-006,
          -1.13983447e-006, -2.50763583e-006, -2.73560272e-006,
          -2.96356961e-006, -3.64747029e-006, -4.78730453e-006,
          -4.78730453e-006, -2.27966893e-006, -1.59576825e-006,
          -2.50763583e-006, -3.64747029e-006, -6.83900680e-006,
          -9.80257573e-006, -1.59576812e-005, -2.00610866e-005,
          -1.25381785e-005, -6.15510589e-006, -2.32526218e-005,
          2.27966893e-007, -2.27966893e-007, 0., 0., 2.27966893e-007, 0.,
          -2.27966893e-007, -2.27966893e-007, 0., 2.27966893e-007,
          -2.27966893e-007, 0., -2.27966893e-007, 0., 0.,
          -2.27966893e-007, -4.55933787e-007, 1.82373515e-006,
          2.32526218e-005, 1.34500460e-005, -4.55933787e-007,
          -1.59576825e-006, 4.55933787e-007, -1.13983447e-006,
          -3.64747029e-006, -2.96356961e-006, -3.64747029e-006,
          -5.01527165e-006, -5.24323832e-006, -6.15510589e-006,
          -6.38307301e-006, -5.92713923e-006, -5.24323832e-006,
          -5.47120544e-006, -4.78730453e-006, -4.33137075e-006,
          -6.38307301e-006, -5.24323832e-006, -3.87543696e-006,
          -5.01527165e-006, -3.64747029e-006, -1.45898812e-005,
          -1.09424109e-005, 3.87543696e-006, 2.25687218e-005,
          -1.09424109e-005, 0., 2.27966893e-007, 2.27966893e-007, 0.,
          -4.55933787e-007, -2.27966893e-007, -2.27966893e-007,
          -2.27966893e-007, -2.27966893e-007, 0., 0., 0., 0.,
          2.27966893e-007, 4.55933787e-007, 3.82984363e-005,
          2.25687218e-005, 4.55933787e-006, -1.82373515e-006,
          -1.59576825e-006, 0., -1.82373515e-006, -1.59576825e-006,
          -3.19153651e-006, -6.61103968e-006, -9.34664240e-006,
          -1.11703775e-005, -1.23102118e-005, -1.36780136e-005,
          -1.25381785e-005, -1.20822451e-005, -1.20822451e-005,
          -1.18542785e-005, -1.23102118e-005, -1.13983442e-005,
          -8.89070816e-006, -6.61103968e-006, -6.15510589e-006,
          -5.47120544e-006, -3.87543696e-006, -4.78730453e-006,
          -8.89070816e-006, -1.59576812e-005, -9.34664240e-006,
          8.43477483e-006, 1.55017478e-005, -2.27966893e-007,
          2.27966893e-007, 0., -4.55933787e-007, -2.27966893e-007, 0.,
          -2.27966893e-007, 0., 2.27966893e-007, 0., 2.27966893e-007,
          -2.27966893e-007, -4.55933787e-007, 2.43924569e-005,
          -3.87543696e-006, -8.66274149e-006, -1.36780136e-006,
          -2.27966893e-007, 2.27966893e-007, -1.59576825e-006,
          -3.64747029e-006, -7.06697347e-006, -9.11867573e-006,
          -1.09424109e-005, -1.16263109e-005, -1.27661460e-005,
          -1.32220794e-005, -1.27661460e-005, -1.27661460e-005,
          -1.29941127e-005, -1.27661460e-005, -1.29941127e-005,
          -1.32220794e-005, -1.36780136e-005, -1.32220794e-005,
          -1.27661460e-005, -1.18542785e-005, -7.97884059e-006,
          -5.47120544e-006, -2.96356961e-006, -3.87543696e-006,
          -5.47120544e-006, -1.32220794e-005, -1.39059803e-005,
          7.29494059e-006, -1.80093848e-005, -6.83900680e-007,
          6.83900680e-007, -2.27966893e-007, 0., -2.27966893e-007,
          -2.27966893e-007, -2.27966893e-007, 0., 0., 0.,
          -7.52290725e-006, 2.46204236e-005, 2.50763583e-006,
          -5.69917211e-006, 0., -2.27966893e-006, -6.83900680e-007,
          -3.19153651e-006, -7.29494059e-006, -9.80257573e-006,
          -1.09424109e-005, -1.09424109e-005, -1.18542785e-005,
          -1.16263109e-005, -1.23102118e-005, -1.20822451e-005,
          -1.29941127e-005, -1.32220794e-005, -1.29941127e-005,
          -1.27661460e-005, -1.25381785e-005, -1.29941127e-005,
          -1.29941127e-005, -1.34500460e-005, -1.36780136e-005,
          -1.39059803e-005, -8.66274149e-006, -5.69917211e-006,
          -5.24323832e-006, -4.55933787e-006, -6.83900680e-006,
          -4.33137075e-006, -1.39059803e-005, -1.64136163e-005,
          -2.25687218e-005, -2.12009199e-005, -6.83900680e-007, 0., 0.,
          -2.27966893e-007, -2.27966893e-007, 0., 0., 2.27966893e-007,
          2.27966893e-007, 2.73560272e-005, 5.69917211e-006,
          -9.11867573e-006, -1.59576825e-006, -2.05170204e-006, 0.,
          -3.87543696e-006, -6.15510589e-006, -1.00305433e-005,
          -1.20822451e-005, -1.13983442e-005, -1.07144433e-005,
          -1.09424109e-005, -1.13983442e-005, -1.20822451e-005,
          -1.23102118e-005, -1.39059803e-005, -1.41339469e-005,
          -1.41339469e-005, -1.39059803e-005, -1.36780136e-005,
          -1.34500460e-005, -1.32220794e-005, -1.32220794e-005,
          -1.27661460e-005, -1.02585100e-005, -4.78730453e-006,
          -3.41950340e-006, -4.33137075e-006, -5.92713923e-006,
          -1.82373515e-006, -6.61103968e-006, -2.05170204e-006,
          -1.43619136e-005, -1.27661460e-005, -1.84653181e-005,
          -2.91797624e-005, 0., 0., 2.27966893e-007, -2.27966893e-007,
          0., 2.27966893e-007, 2.27966893e-007, -3.64747029e-006,
          1.52737812e-005, -1.59576825e-006, -2.73560272e-006,
          -2.96356961e-006, -2.27966893e-006, -3.64747029e-006,
          -7.52290725e-006, -1.02585100e-005, -1.11703775e-005,
          -1.04864766e-005, -1.07144433e-005, -1.13983442e-005,
          -1.16263109e-005, -1.16263109e-005, -1.09424109e-005,
          -1.02585100e-005, -1.11703775e-005, -1.23102118e-005,
          -1.27661460e-005, -1.41339469e-005, -1.39059803e-005,
          -1.36780136e-005, -1.34500460e-005, -1.48178478e-005,
          -1.27661460e-005, -7.75087392e-006, -5.47120544e-006,
          -5.24323832e-006, -5.92713923e-006, -7.97884059e-006,
          -9.11867573e-006, -8.66274149e-006, -4.33137075e-006,
          -7.75087392e-006, -1.48178478e-005, -1.16263109e-005,
          -2.02890533e-005, -2.71280587e-005, 0., 2.27966893e-007,
          -2.27966893e-007, 0., 4.55933787e-007, -6.83900680e-006,
          1.59576812e-005, 5.24323832e-006, -3.41950340e-006,
          -2.73560272e-006, -3.19153651e-006, -5.24323832e-006,
          -8.89070816e-006, -9.80257573e-006, -1.16263109e-005,
          -1.23102118e-005, -1.11703775e-005, -1.13983442e-005,
          -1.13983442e-005, -1.11703775e-005, -1.09424109e-005,
          -1.02585100e-005, -1.09424109e-005, -1.20822451e-005,
          -1.23102118e-005, -1.25381785e-005, -1.39059803e-005,
          -1.39059803e-005, -1.34500460e-005, -1.36780136e-005,
          -1.39059803e-005, -9.11867573e-006, -4.55933787e-006,
          -5.92713923e-006, -4.78730453e-006, -7.29494059e-006,
          -1.23102118e-005, -1.52737812e-005, -1.66415830e-005,
          -6.61103968e-006, 2.27966893e-007, -1.11703775e-005,
          -1.27661460e-005, -3.87543696e-005, -1.73254830e-005,
          -2.94077290e-005, -2.27966893e-007, 0., -2.27966893e-007,
          -2.27966893e-007, -1.13983447e-006, 6.83900680e-006,
          -2.27966893e-006, -3.41950340e-006, -1.36780136e-006,
          -4.33137075e-006, -7.06697347e-006, -1.00305433e-005,
          -1.04864766e-005, -1.16263109e-005, -1.27661460e-005,
          -1.16263109e-005, -1.11703775e-005, -1.16263109e-005,
          -1.13983442e-005, -1.07144433e-005, -1.07144433e-005,
          -1.18542785e-005, -1.25381785e-005, -1.27661460e-005,
          -1.32220794e-005, -1.20822451e-005, -1.29941127e-005,
          -1.27661460e-005, -1.45898812e-005, -1.04864766e-005,
          -4.78730453e-006, -5.47120544e-006, -5.92713923e-006,
          -6.38307301e-006, -1.07144433e-005, -1.39059803e-005,
          -1.36780136e-005, -1.68695497e-005, -1.11703775e-005,
          -9.57460907e-006, -1.36780136e-006, -1.34500460e-005,
          -2.02890533e-005, -2.71280587e-005, -2.98636623e-005,
          -2.27966893e-007, 0., 0., -8.20680816e-006, 1.25381785e-005,
          -2.96356961e-006, -2.27966893e-006, -4.78730453e-006,
          -4.33137075e-006, -4.78730453e-006, -4.55933787e-006,
          -5.69917211e-006, -8.89070816e-006, -1.07144433e-005,
          -1.29941127e-005, -1.18542785e-005, -1.13983442e-005,
          -1.09424109e-005, -1.11703775e-005, -1.04864766e-005,
          -1.11703775e-005, -1.25381785e-005, -1.27661460e-005,
          -1.29941127e-005, -1.32220794e-005, -1.13983442e-005,
          -1.11703775e-005, -1.39059803e-005, -1.13983442e-005,
          -5.69917211e-006, -4.33137075e-006, -5.47120544e-006,
          -5.47120544e-006, -8.43477483e-006, -1.25381785e-005,
          -1.29941127e-005, -1.18542785e-005, -1.34500460e-005,
          -1.39059803e-005, -8.20680816e-006, -5.01527165e-006,
          -4.78730453e-006, -1.45898812e-005, -2.09729533e-005,
          -1.57297145e-005, -2.82678939e-005, 0., -9.11867573e-007,
          -9.11867573e-007, 2.73560272e-006, -2.96356961e-006,
          -2.05170204e-006, -3.64747029e-006, -4.78730453e-006,
          -5.01527165e-006, -4.10340408e-006, -1.13983447e-006,
          -2.27966893e-007, -5.24323832e-006, -1.13983442e-005,
          -1.23102118e-005, -1.13983442e-005, -1.07144433e-005,
          -1.07144433e-005, -1.13983442e-005, -1.18542785e-005,
          -1.16263109e-005, -1.13983442e-005, -1.36780136e-005,
          -1.27661460e-005, -1.18542785e-005, -1.32220794e-005,
          -1.20822451e-005, -7.06697347e-006, -5.69917211e-006,
          -5.24323832e-006, -5.24323832e-006, -8.66274149e-006,
          -1.25381785e-005, -1.34500460e-005, -1.32220794e-005,
          -1.36780136e-005, -1.39059803e-005, -1.36780136e-005,
          -1.55017478e-005, -4.55933787e-006, -4.33137075e-006,
          -1.02585100e-005, -1.36780136e-005, -8.66274149e-006,
          -2.71280587e-005, -2.73560272e-006, -6.15510589e-006,
          -6.83900680e-006, -2.27966893e-006, -3.19153651e-006,
          -2.27966893e-006, -5.69917211e-006, -5.69917211e-006,
          -3.64747029e-006, -3.19153651e-006, -2.50763583e-006,
          -2.27966893e-007, -4.55933787e-007, -5.24323832e-006,
          -9.57460907e-006, -1.13983442e-005, -1.25381785e-005,
          -1.23102118e-005, -1.09424109e-005, -1.04864766e-005,
          -9.80257573e-006, -9.80257573e-006, -1.23102118e-005,
          -1.25381785e-005, -1.23102118e-005, -1.27661460e-005,
          -7.75087392e-006, -4.10340408e-006, -4.78730453e-006,
          -4.33137075e-006, -5.69917211e-006, -1.20822451e-005,
          -1.45898812e-005, -1.34500460e-005, -1.39059803e-005,
          -1.34500460e-005, -1.41339469e-005, -1.34500460e-005,
          -1.34500460e-005, -1.18542785e-005, -6.38307301e-006,
          -3.64747029e-006, -1.55017478e-005, -7.75087392e-006,
          -1.77814163e-005, -2.37085569e-005, -1.32220794e-005,
          -1.29941127e-005, -3.19153651e-006, -2.50763583e-006,
          -4.55933787e-006, -4.55933787e-006, -1.18542785e-005,
          -7.97884059e-006, -6.61103968e-006, -2.27966893e-006,
          -1.59576825e-006, -2.50763583e-006, -3.87543696e-006,
          -2.96356961e-006, -6.15510589e-006, -1.07144433e-005,
          -1.27661460e-005, -1.13983442e-005, -1.09424109e-005,
          -1.04864766e-005, -9.80257573e-006, -1.18542785e-005,
          -1.18542785e-005, -1.36780136e-005, -1.00305433e-005,
          -4.10340408e-006, -4.55933787e-006, -4.10340408e-006,
          -3.19153651e-006, -8.43477483e-006, -1.32220794e-005,
          -1.43619136e-005, -1.41339469e-005, -1.41339469e-005,
          -1.41339469e-005, -1.45898812e-005, -1.45898812e-005,
          -1.18542785e-005, -1.45898812e-005, -9.11867573e-006,
          -1.59576825e-006, -1.20822451e-005, -1.07144433e-005,
          -2.07449866e-005, -3.64747029e-005, -1.50458145e-005,
          -7.29494059e-006, -3.87543696e-006, -2.73560272e-006,
          -3.19153651e-006, -8.43477483e-006, -1.32220794e-005,
          -9.34664240e-006, -1.20822451e-005, -6.83900680e-006,
          -2.05170204e-006, -2.96356961e-006, -4.33137075e-006,
          -3.87543696e-006, -3.41950340e-006, -5.01527165e-006,
          -7.97884059e-006, -1.16263109e-005, -1.16263109e-005,
          -1.07144433e-005, -9.57460907e-006, -1.07144433e-005,
          -1.29941127e-005, -1.13983442e-005, -5.47120544e-006,
          -3.64747029e-006, -3.87543696e-006, -3.41950340e-006,
          -5.47120544e-006, -1.13983442e-005, -1.32220794e-005,
          -1.36780136e-005, -1.41339469e-005, -1.39059803e-005,
          -1.34500460e-005, -1.39059803e-005, -1.41339469e-005,
          -1.36780136e-005, -1.36780136e-005, -1.13983442e-005,
          -5.69917211e-006, -4.78730453e-006, -1.20822451e-005,
          -1.59576812e-005, -2.50763569e-005, 6.38307301e-006,
          2.73560272e-006, -2.96356961e-006, -4.33137075e-006,
          -3.87543696e-006, -9.34664240e-006, -1.25381785e-005,
          -1.00305433e-005, -1.25381785e-005, -1.18542785e-005,
          -9.80257573e-006, -7.06697347e-006, -2.50763583e-006,
          -2.05170204e-006, -2.96356961e-006, -2.73560272e-006,
          -2.96356961e-006, -5.69917211e-006, -8.66274149e-006,
          -1.11703775e-005, -1.07144433e-005, -1.11703775e-005,
          -1.23102118e-005, -7.06697347e-006, -2.27966893e-006,
          -2.73560272e-006, -2.96356961e-006, -5.01527165e-006,
          -9.80257573e-006, -1.29941127e-005, -1.16263109e-005,
          -1.25381785e-005, -1.32220794e-005, -1.36780136e-005,
          -1.48178478e-005, -1.25381785e-005, -1.16263109e-005,
          -1.11703775e-005, -1.07144433e-005, -1.23102118e-005,
          -4.33137075e-006, -3.64747029e-006, -1.18542785e-005,
          -4.33137075e-006, -2.27966884e-005, 1.57297145e-005,
          -2.05170204e-006, -2.50763583e-006, -5.69917211e-006,
          -4.33137075e-006, -8.43477483e-006, -9.80257573e-006,
          -9.57460907e-006, -1.18542785e-005, -1.13983442e-005,
          -1.25381785e-005, -1.13983442e-005, -7.06697347e-006,
          -3.19153651e-006, -2.50763583e-006, -2.50763583e-006,
          -2.50763583e-006, -2.27966893e-006, -2.96356961e-006,
          -5.69917211e-006, -9.80257573e-006, -1.43619136e-005,
          -1.07144433e-005, -3.87543696e-006, -3.19153651e-006,
          -2.27966893e-006, -4.10340408e-006, -7.97884059e-006,
          -1.16263109e-005, -1.04864766e-005, -1.20822451e-005,
          -1.25381785e-005, -1.20822451e-005, -1.18542785e-005,
          -1.27661460e-005, -1.23102118e-005, -1.11703775e-005,
          -1.25381785e-005, -1.11703775e-005, -1.07144433e-005,
          -8.20680816e-006, -3.87543696e-006, -9.80257573e-006,
          -8.89070816e-006, -2.43924569e-005, 9.80257573e-006,
          -6.83900680e-007, -2.05170204e-006, -5.47120544e-006,
          -6.38307301e-006, -9.80257573e-006, -1.13983442e-005,
          -9.57460907e-006, -9.57460907e-006, -8.66274149e-006,
          -9.11867573e-006, -1.18542785e-005, -1.16263109e-005,
          -8.66274149e-006, -4.78730453e-006, -2.50763583e-006,
          -2.50763583e-006, -9.11867573e-007, 1.13983447e-006,
          1.13983447e-006, -2.73560272e-006, -8.89070816e-006,
          -3.64747029e-006, -1.36780136e-006, -3.41950340e-006,
          -4.10340408e-006, -7.52290725e-006, -1.13983442e-005,
          -1.29941127e-005, -1.27661460e-005, -1.34500460e-005,
          -1.39059803e-005, -1.43619136e-005, -1.48178478e-005,
          -1.61856497e-005, -1.82373515e-005, -1.07144433e-005,
          -1.39059803e-005, -1.07144433e-005, -1.11703775e-005,
          -1.00305433e-005, -4.10340408e-006, -4.10340408e-006,
          -1.07144433e-005, -1.59576812e-005, 6.83900680e-006,
          2.27966893e-007, -2.73560272e-006, -2.96356961e-006,
          -6.61103968e-006, -1.09424109e-005, -1.16263109e-005,
          -8.89070816e-006, -2.05170199e-005, -2.73560272e-005,
          -2.80399272e-005, -2.82678939e-005, -2.73560272e-005,
          -2.87238272e-005, -2.84958605e-005, -2.64441587e-005,
          -2.41644902e-005, -2.34805884e-005, -2.46204236e-005,
          -2.32526218e-005, -2.43924569e-005, -2.66721254e-005,
          -2.55322921e-005, -2.66721254e-005, -2.75839939e-005,
          -3.05475623e-005, -3.71586029e-005, -3.89823363e-005,
          -3.82984363e-005, -3.82984363e-005, -3.71586029e-005,
          -3.73865696e-005, -3.71586029e-005, -3.73865696e-005,
          -4.01221732e-005, -4.08060732e-005, -1.52737812e-005,
          -1.41339469e-005, -1.00305433e-005, -1.13983442e-005,
          -9.34664240e-006, -4.33137075e-006, -3.87543696e-006,
          -1.45898812e-005, -2.32526218e-005, 6.83900680e-006,
          -1.36780136e-006, -3.19153651e-006, -2.96356961e-006,
          -6.38307301e-006, -1.16263109e-005, -7.97884059e-006,
          -1.07144433e-005, -2.53043236e-005, -3.44229993e-005,
          -3.37390993e-005, -3.21433326e-005, -3.03195957e-005,
          -2.98636623e-005, -3.03195957e-005, -3.07755290e-005,
          -2.91797624e-005, -2.59882254e-005, -2.23407551e-005,
          -2.09729533e-005, -2.27966884e-005, -2.25687218e-005,
          -2.39365236e-005, -2.43924569e-005, -2.55322921e-005,
          -2.98636623e-005, -3.39670660e-005, -3.48789326e-005,
          -3.44229993e-005, -3.46509660e-005, -3.44229993e-005,
          -3.37390993e-005, -3.30551993e-005, -3.23712993e-005,
          -3.35111326e-005, -3.64747029e-005, -1.34500460e-005,
